<?xml version="1.0"?>
<MethodSetup Method="BDT::BDTG">
  <GeneralInfo>
    <Info name="TMVA Release" value="4.1.3 [262403]"/>
    <Info name="ROOT Release" value="5.34/03 [336387]"/>
    <Info name="Creator" value="dcurry"/>
    <Info name="Date" value="Sun Feb 28 10:13:06 2016"/>
    <Info name="Host" value="Linux lxbuild167.cern.ch 2.6.18-308.16.1.el5 #1 SMP Thu Oct 4 14:02:28 CEST 2012 x86_64 x86_64 x86_64 GNU/Linux"/>
    <Info name="Dir" value="/afs/cern.ch/work/d/dcurry/public/bbar_heppy/CMSSW_6_1_1/src/VHbb/myMacros/regression/forDavid"/>
    <Info name="Training events" value="400075"/>
    <Info name="TrainingTime" value="2.59255387e+02"/>
    <Info name="AnalysisType" value="Regression"/>
  </GeneralInfo>
  <Options>
    <Option name="V" modified="Yes">False</Option>
    <Option name="VerbosityLevel" modified="No">Default</Option>
    <Option name="VarTransform" modified="No">None</Option>
    <Option name="H" modified="Yes">False</Option>
    <Option name="CreateMVAPdfs" modified="No">False</Option>
    <Option name="IgnoreNegWeightsInTraining" modified="No">False</Option>
    <Option name="NTrees" modified="Yes">200</Option>
    <Option name="RenormByClass" modified="No">False</Option>
    <Option name="BoostType" modified="Yes">Grad</Option>
    <Option name="AdaBoostR2Loss" modified="No">quadratic</Option>
    <Option name="UseBaggedGrad" modified="No">False</Option>
    <Option name="GradBaggingFraction" modified="No">6.000000e-01</Option>
    <Option name="Shrinkage" modified="Yes">1.000000e-01</Option>
    <Option name="AdaBoostBeta" modified="No">1.000000e+00</Option>
    <Option name="UseRandomisedTrees" modified="No">False</Option>
    <Option name="UseNvars" modified="No">4</Option>
    <Option name="UsePoissonNvars" modified="No">True</Option>
    <Option name="UseNTrainEvents" modified="No">400075</Option>
    <Option name="UseWeightedTrees" modified="No">True</Option>
    <Option name="UseYesNoLeaf" modified="No">False</Option>
    <Option name="NodePurityLimit" modified="No">5.000000e-01</Option>
    <Option name="SeparationType" modified="No">regressionvariance</Option>
    <Option name="nEventsMin" modified="No">10</Option>
    <Option name="nCuts" modified="No">20</Option>
    <Option name="UseFisherCuts" modified="No">False</Option>
    <Option name="MinLinCorrForFisher" modified="No">8.000000e-01</Option>
    <Option name="UseExclusiveVars" modified="No">False</Option>
    <Option name="PruneStrength" modified="No">0.000000e+00</Option>
    <Option name="PruneMethod" modified="No">nopruning</Option>
    <Option name="PruneBeforeBoost" modified="No">False</Option>
    <Option name="PruningValFraction" modified="No">5.000000e-01</Option>
    <Option name="NNodesMax" modified="No">100000</Option>
    <Option name="MaxDepth" modified="Yes">3</Option>
    <Option name="DoBoostMonitor" modified="No">False</Option>
    <Option name="NegWeightTreatment" modified="No">ignorenegweights</Option>
  </Options>
  <Variables NVar="17">
    <Variable VarIndex="0" Expression="Jet_pt" Label="Jet_pt" Title="Jet_pt" Unit="units" Internal="Jet_pt" Type="F" Min="1.50000143e+01" Max="1.64497229e+03"/>
    <Variable VarIndex="1" Expression="Jet_corr" Label="Jet_corr" Title="Jet_corr" Unit="units" Internal="Jet_corr" Type="F" Min="6.37775540e-01" Max="1.18656075e+00"/>
    <Variable VarIndex="2" Expression="rho" Label="rho" Title="rho" Unit="units" Internal="rho" Type="F" Min="0.00000000e+00" Max="4.35257149e+01"/>
    <Variable VarIndex="3" Expression="Jet_eta" Label="Jet_eta" Title="Jet_eta" Unit="units" Internal="Jet_eta" Type="F" Min="-2.39997745e+00" Max="2.39999795e+00"/>
    <Variable VarIndex="4" Expression="Jet_leadTrackPt" Label="Jet_leadTrackPt" Title="Jet_leadTrackPt  " Unit="units" Internal="Jet_leadTrackPt" Type="F" Min="2.88085938e-01" Max="8.14500000e+02"/>
    <Variable VarIndex="5" Expression="Jet_leptonPtRel" Label="Jet_leptonPtRel" Title="Jet_leptonPtRel" Unit="units" Internal="Jet_leptonPtRel" Type="F" Min="0.00000000e+00" Max="3.69684868e+01"/>
    <Variable VarIndex="6" Expression="Jet_leptonPt" Label="Jet_leptonPt" Title="Jet_leptonPt" Unit="units" Internal="Jet_leptonPt" Type="F" Min="0.00000000e+00" Max="3.26867462e+02"/>
    <Variable VarIndex="7" Expression="Jet_leptonDeltaR" Label="Jet_leptonDeltaR" Title="Jet_leptonDeltaR" Unit="units" Internal="Jet_leptonDeltaR" Type="F" Min="0.00000000e+00" Max="3.99845004e-01"/>
    <Variable VarIndex="8" Expression="Jet_neHEF" Label="Jet_neHEF" Title="Jet_neHEF" Unit="units" Internal="Jet_neHEF" Type="F" Min="0.00000000e+00" Max="9.33401346e-01"/>
    <Variable VarIndex="9" Expression="Jet_neEmEF" Label="Jet_neEmEF" Title="Jet_neEmEF" Unit="units" Internal="Jet_neEmEF" Type="F" Min="0.00000000e+00" Max="1.08234346e+00"/>
    <Variable VarIndex="10" Expression="Jet_chMult" Label="Jet_chMult" Title="Jet_chMult" Unit="units" Internal="Jet_chMult" Type="F" Min="1.00000000e+00" Max="5.20000000e+01"/>
    <Variable VarIndex="11" Expression="Jet_vtxPt" Label="Jet_vtxPt" Title="Jet_vtxPt" Unit="units" Internal="Jet_vtxPt" Type="F" Min="0.00000000e+00" Max="3.48729645e+02"/>
    <Variable VarIndex="12" Expression="Jet_vtxMass" Label="Jet_vtxMass" Title="Jet_vtxMass" Unit="units" Internal="Jet_vtxMass" Type="F" Min="0.00000000e+00" Max="6.49464369e+00"/>
    <Variable VarIndex="13" Expression="Jet_vtx3dL" Label="Jet_vtx3dL" Title="Jet_vtx3dL" Unit="units" Internal="Jet_vtx3dL" Type="F" Min="0.00000000e+00" Max="1.38153982e+01"/>
    <Variable VarIndex="14" Expression="Jet_vtxNtrk" Label="Jet_vtxNtrk" Title="Jet_vtxNtrk" Unit="units" Internal="Jet_vtxNtrk" Type="I" Min="0.00000000e+00" Max="1.30000000e+01"/>
    <Variable VarIndex="15" Expression="Jet_vtx3deL" Label="Jet_vtx3deL" Title="Jet_vtx3deL" Unit="units" Internal="Jet_vtx3deL" Type="F" Min="0.00000000e+00" Max="3.48108734e+02"/>
    <Variable VarIndex="16" Expression="met_pt" Label="met_pt" Title="met_pt" Unit="units" Internal="met_pt" Type="F" Min="5.00649326e-02" Max="5.93938843e+02"/>
  </Variables>
  <Spectators NSpec="0"/>
  <Classes NClass="1">
    <Class Name="Regression" Index="0"/>
  </Classes>
  <Targets NTrgt="1">
    <Target TargetIndex="0" Expression="Jet_mcPt" Label="Jet_mcPt" Title="Jet_mcPt" Unit="" Internal="Jet_mcPt" Type="F" Min="2.00002060e+01" Max="1.50771851e+03"/>
  </Targets>
  <Transformations NTransformations="0"/>
  <MVAPdfs/>
  <Weights NTrees="200" AnalysisType="1">
    <BinaryTree type="DecisionTree" boostWeight="6.1748939514160156e+01" itree="0">
      <Node pos="s" depth="0" NCoef="0" IVar="0" Cut="9.2617744445800781e+01" cType="0" res="2.1234617233276367e+00" rms="2.3899763107299805e+01" purity="1.0000000000000000e+00" nType="0">
        <Node pos="l" depth="1" NCoef="0" IVar="0" Cut="1.6653987121582031e+02" cType="0" res="3.2541057586669922e+01" rms="3.5034146308898926e+00" purity="1.0000000000000000e+00" nType="0">
          <Node pos="l" depth="2" NCoef="0" IVar="7" Cut="1.8978273496031761e-02" cType="0" res="3.3465267181396484e+01" rms="6.5303117036819458e-01" purity="1.0000000000000000e+00" nType="0">
            <Node pos="l" depth="3" NCoef="0" IVar="-1" Cut="0.0000000000000000e+00" cType="1" res="1.5302294731140137e+01" rms="1.1255081892013550e+00" purity="1.0000000000000000e+00" nType="-99"/>
            <Node pos="r" depth="3" NCoef="0" IVar="-1" Cut="0.0000000000000000e+00" cType="1" res="1.5244227409362793e+01" rms="4.4518479704856873e-01" purity="1.0000000000000000e+00" nType="-99"/>
          </Node>
          <Node pos="r" depth="2" NCoef="0" IVar="0" Cut="1.0317819213867188e+02" cType="0" res="3.2271049499511719e+01" rms="3.9258992671966553e+00" purity="1.0000000000000000e+00" nType="0">
            <Node pos="l" depth="3" NCoef="0" IVar="-1" Cut="0.0000000000000000e+00" cType="1" res="6.5921654701232910e+00" rms="2.1741912364959717e+00" purity="1.0000000000000000e+00" nType="-99"/>
            <Node pos="r" depth="3" NCoef="0" IVar="-1" Cut="0.0000000000000000e+00" cType="1" res="3.7985267639160156e+00" rms="6.0376625061035156e+00" purity="1.0000000000000000e+00" nType="-99"/>
          </Node>
        </Node>
        <Node pos="r" depth="1" NCoef="0" IVar="0" Cut="5.5656883239746094e+01" cType="0" res="-6.2567477226257324e+00" rms="2.0001293182373047e+01" purity="1.0000000000000000e+00" nType="0">
          <Node pos="l" depth="2" NCoef="0" IVar="0" Cut="7.1497261047363281e+01" cType="0" res="1.1769531250000000e+01" rms="1.3777552604675293e+01" purity="1.0000000000000000e+00" nType="0">
            <Node pos="l" depth="3" NCoef="0" IVar="-1" Cut="0.0000000000000000e+00" cType="1" res="2.1851847171783447e+00" rms="1.0837689399719238e+01" purity="1.0000000000000000e+00" nType="-99"/>
            <Node pos="r" depth="3" NCoef="0" IVar="-1" Cut="0.0000000000000000e+00" cType="1" res="4.7255030274391174e-01" rms="1.2019075393676758e+01" purity="1.0000000000000000e+00" nType="-99"/>
          </Node>
          <Node pos="r" depth="2" NCoef="0" IVar="0" Cut="4.0168350219726562e+01" cType="0" res="-1.7299612045288086e+01" rms="1.4416382789611816e+01" purity="1.0000000000000000e+00" nType="0">
            <Node pos="l" depth="3" NCoef="0" IVar="-1" Cut="0.0000000000000000e+00" cType="1" res="-9.6216857433319092e-01" rms="1.1907685279846191e+01" purity="1.0000000000000000e+00" nType="-99"/>
            <Node pos="r" depth="3" NCoef="0" IVar="-1" Cut="0.0000000000000000e+00" cType="1" res="-2.4394159317016602e+00" rms="1.3447222709655762e+01" purity="1.0000000000000000e+00" nType="-99"/>
          </Node>
        </Node>
      </Node>
    </BinaryTree>
    <BinaryTree type="DecisionTree" boostWeight="1.0000000000000000e+00" itree="1">
      <Node pos="s" depth="0" NCoef="0" IVar="0" Cut="9.2617744445800781e+01" cType="0" res="1.9660598039627075e+00" rms="2.1982837677001953e+01" purity="1.0000000000000000e+00" nType="0">
        <Node pos="l" depth="1" NCoef="0" IVar="0" Cut="1.6653987121582031e+02" cType="0" res="2.9657537460327148e+01" rms="3.9680130481719971e+00" purity="1.0000000000000000e+00" nType="0">
          <Node pos="l" depth="2" NCoef="0" IVar="7" Cut="1.8978273496031761e-02" cType="0" res="3.0834102630615234e+01" rms="9.1461288928985596e-01" purity="1.0000000000000000e+00" nType="0">
            <Node pos="l" depth="3" NCoef="0" IVar="-1" Cut="0.0000000000000000e+00" cType="1" res="1.3749716758728027e+01" rms="1.5948069095611572e+00" purity="1.0000000000000000e+00" nType="-99"/>
            <Node pos="r" depth="3" NCoef="0" IVar="-1" Cut="0.0000000000000000e+00" cType="1" res="1.3697422027587891e+01" rms="6.1043512821197510e-01" purity="1.0000000000000000e+00" nType="-99"/>
          </Node>
          <Node pos="r" depth="2" NCoef="0" IVar="0" Cut="1.0669817352294922e+02" cType="0" res="2.9313806533813477e+01" rms="4.4247121810913086e+00" purity="1.0000000000000000e+00" nType="0">
            <Node pos="l" depth="3" NCoef="0" IVar="-1" Cut="0.0000000000000000e+00" cType="1" res="6.1899256706237793e+00" rms="2.4151668548583984e+00" purity="1.0000000000000000e+00" nType="-99"/>
            <Node pos="r" depth="3" NCoef="0" IVar="-1" Cut="0.0000000000000000e+00" cType="1" res="3.4965369701385498e+00" rms="6.1751546859741211e+00" purity="1.0000000000000000e+00" nType="-99"/>
          </Node>
        </Node>
        <Node pos="r" depth="1" NCoef="0" IVar="0" Cut="5.1960803985595703e+01" cType="0" res="-5.6630897521972656e+00" rms="1.8508850097656250e+01" purity="1.0000000000000000e+00" nType="0">
          <Node pos="l" depth="2" NCoef="0" IVar="0" Cut="6.9385284423828125e+01" cType="0" res="8.6992597579956055e+00" rms="1.3696117401123047e+01" purity="1.0000000000000000e+00" nType="0">
            <Node pos="l" depth="3" NCoef="0" IVar="-1" Cut="0.0000000000000000e+00" cType="1" res="1.8617473840713501e+00" rms="1.0953338623046875e+01" purity="1.0000000000000000e+00" nType="-99"/>
            <Node pos="r" depth="3" NCoef="0" IVar="-1" Cut="0.0000000000000000e+00" cType="1" res="1.7643435299396515e-01" rms="1.1851317405700684e+01" purity="1.0000000000000000e+00" nType="-99"/>
          </Node>
          <Node pos="r" depth="2" NCoef="0" IVar="0" Cut="3.7880455017089844e+01" cType="0" res="-1.6764638900756836e+01" rms="1.3404971122741699e+01" purity="1.0000000000000000e+00" nType="0">
            <Node pos="l" depth="3" NCoef="0" IVar="-1" Cut="0.0000000000000000e+00" cType="1" res="-1.1135213375091553e+00" rms="1.1439193725585938e+01" purity="1.0000000000000000e+00" nType="-99"/>
            <Node pos="r" depth="3" NCoef="0" IVar="-1" Cut="0.0000000000000000e+00" cType="1" res="-2.2936148643493652e+00" rms="1.3104217529296875e+01" purity="1.0000000000000000e+00" nType="-99"/>
          </Node>
        </Node>
      </Node>
    </BinaryTree>
    <BinaryTree type="DecisionTree" boostWeight="1.0000000000000000e+00" itree="2">
      <Node pos="s" depth="0" NCoef="0" IVar="0" Cut="9.2617744445800781e+01" cType="0" res="1.8036365509033203e+00" rms="2.0258293151855469e+01" purity="1.0000000000000000e+00" nType="0">
        <Node pos="l" depth="1" NCoef="0" IVar="0" Cut="1.6653987121582031e+02" cType="0" res="2.6994155883789062e+01" rms="4.4117374420166016e+00" purity="1.0000000000000000e+00" nType="0">
          <Node pos="l" depth="2" NCoef="0" IVar="7" Cut="1.5182618796825409e-01" cType="0" res="2.8434928894042969e+01" rms="1.1416137218475342e+00" purity="1.0000000000000000e+00" nType="0">
            <Node pos="l" depth="3" NCoef="0" IVar="-1" Cut="0.0000000000000000e+00" cType="1" res="1.2955639839172363e+01" rms="2.7031149864196777e+00" purity="1.0000000000000000e+00" nType="-99"/>
            <Node pos="r" depth="3" NCoef="0" IVar="-1" Cut="0.0000000000000000e+00" cType="1" res="1.2299151420593262e+01" rms="1.0261658430099487e+00" purity="1.0000000000000000e+00" nType="-99"/>
          </Node>
          <Node pos="r" depth="2" NCoef="0" IVar="0" Cut="1.1021814727783203e+02" cType="0" res="2.6573236465454102e+01" rms="4.8974752426147461e+00" purity="1.0000000000000000e+00" nType="0">
            <Node pos="l" depth="3" NCoef="0" IVar="-1" Cut="0.0000000000000000e+00" cType="1" res="5.8099298477172852e+00" rms="2.6793603897094727e+00" purity="1.0000000000000000e+00" nType="-99"/>
            <Node pos="r" depth="3" NCoef="0" IVar="-1" Cut="0.0000000000000000e+00" cType="1" res="3.2043666839599609e+00" rms="6.3653578758239746e+00" purity="1.0000000000000000e+00" nType="-99"/>
          </Node>
        </Node>
        <Node pos="r" depth="1" NCoef="0" IVar="0" Cut="5.5656883239746094e+01" cType="0" res="-5.1364855766296387e+00" rms="1.7178840637207031e+01" purity="1.0000000000000000e+00" nType="0">
          <Node pos="l" depth="2" NCoef="0" IVar="0" Cut="7.5017333984375000e+01" cType="0" res="9.2476215362548828e+00" rms="1.2611341476440430e+01" purity="1.0000000000000000e+00" nType="0">
            <Node pos="l" depth="3" NCoef="0" IVar="-1" Cut="0.0000000000000000e+00" cType="1" res="1.9584448337554932e+00" rms="9.9035854339599609e+00" purity="1.0000000000000000e+00" nType="-99"/>
            <Node pos="r" depth="3" NCoef="0" IVar="-1" Cut="0.0000000000000000e+00" cType="1" res="4.6610188484191895e-01" rms="1.1597420692443848e+01" purity="1.0000000000000000e+00" nType="-99"/>
          </Node>
          <Node pos="r" depth="2" NCoef="0" IVar="0" Cut="4.2104377746582031e+01" cType="0" res="-1.3948162078857422e+01" rms="1.3193672180175781e+01" purity="1.0000000000000000e+00" nType="0">
            <Node pos="l" depth="3" NCoef="0" IVar="-1" Cut="0.0000000000000000e+00" cType="1" res="-7.0809096097946167e-01" rms="1.1340507507324219e+01" purity="1.0000000000000000e+00" nType="-99"/>
            <Node pos="r" depth="3" NCoef="0" IVar="-1" Cut="0.0000000000000000e+00" cType="1" res="-1.9491035938262939e+00" rms="1.2484682083129883e+01" purity="1.0000000000000000e+00" nType="-99"/>
          </Node>
        </Node>
      </Node>
    </BinaryTree>
    <BinaryTree type="DecisionTree" boostWeight="1.0000000000000000e+00" itree="3">
      <Node pos="s" depth="0" NCoef="0" IVar="0" Cut="9.2617744445800781e+01" cType="0" res="1.6677081584930420e+00" rms="1.8734479904174805e+01" purity="1.0000000000000000e+00" nType="0">
        <Node pos="l" depth="1" NCoef="0" IVar="0" Cut="1.6653987121582031e+02" cType="0" res="2.4603071212768555e+01" rms="4.8559594154357910e+00" purity="1.0000000000000000e+00" nType="0">
          <Node pos="l" depth="2" NCoef="0" IVar="7" Cut="2.2773928940296173e-01" cType="0" res="2.6334178924560547e+01" rms="1.4086511135101318e+00" purity="1.0000000000000000e+00" nType="0">
            <Node pos="l" depth="3" NCoef="0" IVar="-1" Cut="0.0000000000000000e+00" cType="1" res="1.1858130455017090e+01" rms="4.6453256607055664e+00" purity="1.0000000000000000e+00" nType="-99"/>
            <Node pos="r" depth="3" NCoef="0" IVar="-1" Cut="0.0000000000000000e+00" cType="1" res="1.1066028594970703e+01" rms="1.2843379974365234e+00" purity="1.0000000000000000e+00" nType="-99"/>
          </Node>
          <Node pos="r" depth="2" NCoef="0" IVar="0" Cut="1.1373812866210938e+02" cType="0" res="2.4097330093383789e+01" rms="5.3626790046691895e+00" purity="1.0000000000000000e+00" nType="0">
            <Node pos="l" depth="3" NCoef="0" IVar="-1" Cut="0.0000000000000000e+00" cType="1" res="5.4767866134643555e+00" rms="2.8649017810821533e+00" purity="1.0000000000000000e+00" nType="-99"/>
            <Node pos="r" depth="3" NCoef="0" IVar="-1" Cut="0.0000000000000000e+00" cType="1" res="2.9280600547790527e+00" rms="6.6190195083618164e+00" purity="1.0000000000000000e+00" nType="-99"/>
          </Node>
        </Node>
        <Node pos="r" depth="1" NCoef="0" IVar="0" Cut="5.1960803985595703e+01" cType="0" res="-4.6511063575744629e+00" rms="1.6010295867919922e+01" purity="1.0000000000000000e+00" nType="0">
          <Node pos="l" depth="2" NCoef="0" IVar="0" Cut="6.7449256896972656e+01" cType="0" res="6.7887816429138184e+00" rms="1.2513824462890625e+01" purity="1.0000000000000000e+00" nType="0">
            <Node pos="l" depth="3" NCoef="0" IVar="-1" Cut="0.0000000000000000e+00" cType="1" res="1.4312809705734253e+00" rms="1.0623434066772461e+01" purity="1.0000000000000000e+00" nType="-99"/>
            <Node pos="r" depth="3" NCoef="0" IVar="-1" Cut="0.0000000000000000e+00" cType="1" res="5.0502955913543701e-02" rms="1.1234221458435059e+01" purity="1.0000000000000000e+00" nType="-99"/>
          </Node>
          <Node pos="r" depth="2" NCoef="0" IVar="0" Cut="3.6120418548583984e+01" cType="0" res="-1.3493703842163086e+01" rms="1.2412501335144043e+01" purity="1.0000000000000000e+00" nType="0">
            <Node pos="l" depth="3" NCoef="0" IVar="-1" Cut="0.0000000000000000e+00" cType="1" res="-9.5286059379577637e-01" rms="1.0980483055114746e+01" purity="1.0000000000000000e+00" nType="-99"/>
            <Node pos="r" depth="3" NCoef="0" IVar="-1" Cut="0.0000000000000000e+00" cType="1" res="-1.9586399793624878e+00" rms="1.2336273193359375e+01" purity="1.0000000000000000e+00" nType="-99"/>
          </Node>
        </Node>
      </Node>
    </BinaryTree>
    <BinaryTree type="DecisionTree" boostWeight="1.0000000000000000e+00" itree="4">
      <Node pos="s" depth="0" NCoef="0" IVar="0" Cut="9.2617744445800781e+01" cType="0" res="1.5164067745208740e+00" rms="1.7360841751098633e+01" purity="1.0000000000000000e+00" nType="0">
        <Node pos="l" depth="1" NCoef="0" IVar="0" Cut="1.6653987121582031e+02" cType="0" res="2.2373825073242188e+01" rms="5.2529287338256836e+00" purity="1.0000000000000000e+00" nType="0">
          <Node pos="l" depth="2" NCoef="0" IVar="7" Cut="2.2773928940296173e-01" cType="0" res="2.4381151199340820e+01" rms="1.6650345325469971e+00" purity="1.0000000000000000e+00" nType="0">
            <Node pos="l" depth="3" NCoef="0" IVar="-1" Cut="0.0000000000000000e+00" cType="1" res="1.0664567947387695e+01" rms="5.8522620201110840e+00" purity="1.0000000000000000e+00" nType="-99"/>
            <Node pos="r" depth="3" NCoef="0" IVar="-1" Cut="0.0000000000000000e+00" cType="1" res="9.9493656158447266e+00" rms="1.4946458339691162e+00" purity="1.0000000000000000e+00" nType="-99"/>
          </Node>
          <Node pos="r" depth="2" NCoef="0" IVar="0" Cut="1.1725811004638672e+02" cType="0" res="2.1787387847900391e+01" rms="5.7726569175720215e+00" purity="1.0000000000000000e+00" nType="0">
            <Node pos="l" depth="3" NCoef="0" IVar="-1" Cut="0.0000000000000000e+00" cType="1" res="5.1687512397766113e+00" rms="2.9456405639648438e+00" purity="1.0000000000000000e+00" nType="-99"/>
            <Node pos="r" depth="3" NCoef="0" IVar="-1" Cut="0.0000000000000000e+00" cType="1" res="2.6640243530273438e+00" rms="6.8708119392395020e+00" purity="1.0000000000000000e+00" nType="-99"/>
          </Node>
        </Node>
        <Node pos="r" depth="1" NCoef="0" IVar="0" Cut="5.9352962493896484e+01" cType="0" res="-4.2299232482910156e+00" rms="1.4965285301208496e+01" purity="1.0000000000000000e+00" nType="0">
          <Node pos="l" depth="2" NCoef="0" IVar="0" Cut="7.8361732482910156e+01" cType="0" res="8.6553487777709961e+00" rms="1.1198740005493164e+01" purity="1.0000000000000000e+00" nType="0">
            <Node pos="l" depth="3" NCoef="0" IVar="-1" Cut="0.0000000000000000e+00" cType="1" res="1.7844759225845337e+00" rms="9.0608329772949219e+00" purity="1.0000000000000000e+00" nType="-99"/>
            <Node pos="r" depth="3" NCoef="0" IVar="-1" Cut="0.0000000000000000e+00" cType="1" res="5.7284289598464966e-01" rms="1.0736224174499512e+01" purity="1.0000000000000000e+00" nType="-99"/>
          </Node>
          <Node pos="r" depth="2" NCoef="0" IVar="0" Cut="4.4568511962890625e+01" cType="0" res="-1.0488783836364746e+01" rms="1.2329142570495605e+01" purity="1.0000000000000000e+00" nType="0">
            <Node pos="l" depth="3" NCoef="0" IVar="-1" Cut="0.0000000000000000e+00" cType="1" res="-4.1215771436691284e-01" rms="1.0809197425842285e+01" purity="1.0000000000000000e+00" nType="-99"/>
            <Node pos="r" depth="3" NCoef="0" IVar="-1" Cut="0.0000000000000000e+00" cType="1" res="-1.5506933927536011e+00" rms="1.1644342422485352e+01" purity="1.0000000000000000e+00" nType="-99"/>
          </Node>
        </Node>
      </Node>
    </BinaryTree>
    <BinaryTree type="DecisionTree" boostWeight="1.0000000000000000e+00" itree="5">
      <Node pos="s" depth="0" NCoef="0" IVar="0" Cut="9.2617744445800781e+01" cType="0" res="1.4007887840270996e+00" rms="1.6150894165039062e+01" purity="1.0000000000000000e+00" nType="0">
        <Node pos="l" depth="1" NCoef="0" IVar="0" Cut="1.6653987121582031e+02" cType="0" res="2.0385944366455078e+01" rms="5.6432776451110840e+00" purity="1.0000000000000000e+00" nType="0">
          <Node pos="l" depth="2" NCoef="0" IVar="0" Cut="2.3694238281250000e+02" cType="0" res="2.2657691955566406e+01" rms="2.0190064907073975e+00" purity="1.0000000000000000e+00" nType="0">
            <Node pos="l" depth="3" NCoef="0" IVar="-1" Cut="0.0000000000000000e+00" cType="1" res="1.6783199310302734e+01" rms="3.3686906099319458e-01" purity="1.0000000000000000e+00" nType="-99"/>
            <Node pos="r" depth="3" NCoef="0" IVar="-1" Cut="0.0000000000000000e+00" cType="1" res="6.9050326347351074e+00" rms="2.4423408508300781e+00" purity="1.0000000000000000e+00" nType="-99"/>
          </Node>
          <Node pos="r" depth="2" NCoef="0" IVar="0" Cut="1.2077808380126953e+02" cType="0" res="1.9722257614135742e+01" rms="6.1653370857238770e+00" purity="1.0000000000000000e+00" nType="0">
            <Node pos="l" depth="3" NCoef="0" IVar="-1" Cut="0.0000000000000000e+00" cType="1" res="4.8837285041809082e+00" rms="3.0564503669738770e+00" purity="1.0000000000000000e+00" nType="-99"/>
            <Node pos="r" depth="3" NCoef="0" IVar="-1" Cut="0.0000000000000000e+00" cType="1" res="2.4304497241973877e+00" rms="7.1084790229797363e+00" purity="1.0000000000000000e+00" nType="-99"/>
          </Node>
        </Node>
        <Node pos="r" depth="1" NCoef="0" IVar="0" Cut="5.1960803985595703e+01" cType="0" res="-3.8297226428985596e+00" rms="1.4045751571655273e+01" purity="1.0000000000000000e+00" nType="0">
          <Node pos="l" depth="2" NCoef="0" IVar="0" Cut="6.5513221740722656e+01" cType="0" res="5.2607498168945312e+00" rms="1.1544023513793945e+01" purity="1.0000000000000000e+00" nType="0">
            <Node pos="l" depth="3" NCoef="0" IVar="-1" Cut="0.0000000000000000e+00" cType="1" res="1.0906945466995239e+00" rms="1.0290689468383789e+01" purity="1.0000000000000000e+00" nType="-99"/>
            <Node pos="r" depth="3" NCoef="0" IVar="-1" Cut="0.0000000000000000e+00" cType="1" res="-4.2109869420528412e-02" rms="1.0660657882690430e+01" purity="1.0000000000000000e+00" nType="-99"/>
          </Node>
          <Node pos="r" depth="2" NCoef="0" IVar="0" Cut="3.4360385894775391e+01" cType="0" res="-1.0856310844421387e+01" rms="1.1555049896240234e+01" purity="1.0000000000000000e+00" nType="0">
            <Node pos="l" depth="3" NCoef="0" IVar="-1" Cut="0.0000000000000000e+00" cType="1" res="-8.0726659297943115e-01" rms="1.0457644462585449e+01" purity="1.0000000000000000e+00" nType="-99"/>
            <Node pos="r" depth="3" NCoef="0" IVar="-1" Cut="0.0000000000000000e+00" cType="1" res="-1.6961679458618164e+00" rms="1.1643658638000488e+01" purity="1.0000000000000000e+00" nType="-99"/>
          </Node>
        </Node>
      </Node>
    </BinaryTree>
    <BinaryTree type="DecisionTree" boostWeight="1.0000000000000000e+00" itree="6">
      <Node pos="s" depth="0" NCoef="0" IVar="0" Cut="9.2617744445800781e+01" cType="0" res="1.2644594907760620e+00" rms="1.5073981285095215e+01" purity="1.0000000000000000e+00" nType="0">
        <Node pos="l" depth="1" NCoef="0" IVar="0" Cut="1.6653987121582031e+02" cType="0" res="1.8531049728393555e+01" rms="5.9920954704284668e+00" purity="1.0000000000000000e+00" nType="0">
          <Node pos="l" depth="2" NCoef="0" IVar="0" Cut="2.3694238281250000e+02" cType="0" res="2.1024539947509766e+01" rms="2.3875699043273926e+00" purity="1.0000000000000000e+00" nType="0">
            <Node pos="l" depth="3" NCoef="0" IVar="-1" Cut="0.0000000000000000e+00" cType="1" res="1.5098883628845215e+01" rms="7.3701030015945435e-01" purity="1.0000000000000000e+00" nType="-99"/>
            <Node pos="r" depth="3" NCoef="0" IVar="-1" Cut="0.0000000000000000e+00" cType="1" res="6.2074437141418457e+00" rms="2.8520278930664062e+00" purity="1.0000000000000000e+00" nType="-99"/>
          </Node>
          <Node pos="r" depth="2" NCoef="0" IVar="0" Cut="1.2429806518554688e+02" cType="0" res="1.7802579879760742e+01" rms="6.5101737976074219e+00" purity="1.0000000000000000e+00" nType="0">
            <Node pos="l" depth="3" NCoef="0" IVar="-1" Cut="0.0000000000000000e+00" cType="1" res="4.6317968368530273e+00" rms="3.1348106861114502e+00" purity="1.0000000000000000e+00" nType="-99"/>
            <Node pos="r" depth="3" NCoef="0" IVar="-1" Cut="0.0000000000000000e+00" cType="1" res="2.2149684429168701e+00" rms="7.3104271888732910e+00" purity="1.0000000000000000e+00" nType="-99"/>
          </Node>
        </Node>
        <Node pos="r" depth="1" NCoef="0" IVar="0" Cut="4.8264724731445312e+01" cType="0" res="-3.4925777912139893e+00" rms="1.3235078811645508e+01" purity="1.0000000000000000e+00" nType="0">
          <Node pos="l" depth="2" NCoef="0" IVar="0" Cut="7.3609375000000000e+01" cType="0" res="3.7245955467224121e+00" rms="1.1287876129150391e+01" purity="1.0000000000000000e+00" nType="0">
            <Node pos="l" depth="3" NCoef="0" IVar="-1" Cut="0.0000000000000000e+00" cType="1" res="1.2591209411621094e+00" rms="9.5739202499389648e+00" purity="1.0000000000000000e+00" nType="-99"/>
            <Node pos="r" depth="3" NCoef="0" IVar="-1" Cut="0.0000000000000000e+00" cType="1" res="5.2019611001014709e-02" rms="1.0593523025512695e+01" purity="1.0000000000000000e+00" nType="-99"/>
          </Node>
          <Node pos="r" depth="2" NCoef="0" IVar="0" Cut="3.4008342742919922e+01" cType="0" res="-1.0576614379882812e+01" rms="1.0987596511840820e+01" purity="1.0000000000000000e+00" nType="0">
            <Node pos="l" depth="3" NCoef="0" IVar="-1" Cut="0.0000000000000000e+00" cType="1" res="-8.4919583797454834e-01" rms="9.9975852966308594e+00" purity="1.0000000000000000e+00" nType="-99"/>
            <Node pos="r" depth="3" NCoef="0" IVar="-1" Cut="0.0000000000000000e+00" cType="1" res="-1.5520951747894287e+00" rms="1.1296166419982910e+01" purity="1.0000000000000000e+00" nType="-99"/>
          </Node>
        </Node>
      </Node>
    </BinaryTree>
    <BinaryTree type="DecisionTree" boostWeight="1.0000000000000000e+00" itree="7">
      <Node pos="s" depth="0" NCoef="0" IVar="0" Cut="9.2617744445800781e+01" cType="0" res="1.1375291347503662e+00" rms="1.4117568969726562e+01" purity="1.0000000000000000e+00" nType="0">
        <Node pos="l" depth="1" NCoef="0" IVar="0" Cut="1.6653987121582031e+02" cType="0" res="1.6826721191406250e+01" rms="6.3240385055541992e+00" purity="1.0000000000000000e+00" nType="0">
          <Node pos="l" depth="2" NCoef="0" IVar="0" Cut="2.3694238281250000e+02" cType="0" res="1.9490093231201172e+01" rms="2.8820452690124512e+00" purity="1.0000000000000000e+00" nType="0">
            <Node pos="l" depth="3" NCoef="0" IVar="-1" Cut="0.0000000000000000e+00" cType="1" res="1.3584328651428223e+01" rms="1.0996414422988892e+00" purity="1.0000000000000000e+00" nType="-99"/>
            <Node pos="r" depth="3" NCoef="0" IVar="-1" Cut="0.0000000000000000e+00" cType="1" res="5.5806851387023926e+00" rms="3.4048638343811035e+00" purity="1.0000000000000000e+00" nType="-99"/>
          </Node>
          <Node pos="r" depth="2" NCoef="0" IVar="0" Cut="1.2429806518554688e+02" cType="0" res="1.6048622131347656e+01" rms="6.8244438171386719e+00" purity="1.0000000000000000e+00" nType="0">
            <Node pos="l" depth="3" NCoef="0" IVar="-1" Cut="0.0000000000000000e+00" cType="1" res="4.1603393554687500e+00" rms="3.7372763156890869e+00" purity="1.0000000000000000e+00" nType="-99"/>
            <Node pos="r" depth="3" NCoef="0" IVar="-1" Cut="0.0000000000000000e+00" cType="1" res="1.9830836057662964e+00" rms="7.5724248886108398e+00" purity="1.0000000000000000e+00" nType="-99"/>
          </Node>
        </Node>
        <Node pos="r" depth="1" NCoef="0" IVar="0" Cut="5.9352962493896484e+01" cType="0" res="-3.1849269866943359e+00" rms="1.2517893791198730e+01" purity="1.0000000000000000e+00" nType="0">
          <Node pos="l" depth="2" NCoef="0" IVar="0" Cut="8.1529724121093750e+01" cType="0" res="6.0407567024230957e+00" rms="1.0271875381469727e+01" purity="1.0000000000000000e+00" nType="0">
            <Node pos="l" depth="3" NCoef="0" IVar="-1" Cut="0.0000000000000000e+00" cType="1" res="1.5127772092819214e+00" rms="8.2621765136718750e+00" purity="1.0000000000000000e+00" nType="-99"/>
            <Node pos="r" depth="3" NCoef="0" IVar="-1" Cut="0.0000000000000000e+00" cType="1" res="4.3991655111312866e-01" rms="1.0064452171325684e+01" purity="1.0000000000000000e+00" nType="-99"/>
          </Node>
          <Node pos="r" depth="2" NCoef="0" IVar="0" Cut="4.2456474304199219e+01" cType="0" res="-7.6661882400512695e+00" rms="1.0960673332214355e+01" purity="1.0000000000000000e+00" nType="0">
            <Node pos="l" depth="3" NCoef="0" IVar="-1" Cut="0.0000000000000000e+00" cType="1" res="-3.8333946466445923e-01" rms="1.0100805282592773e+01" purity="1.0000000000000000e+00" nType="-99"/>
            <Node pos="r" depth="3" NCoef="0" IVar="-1" Cut="0.0000000000000000e+00" cType="1" res="-1.2142558097839355e+00" rms="1.0616792678833008e+01" purity="1.0000000000000000e+00" nType="-99"/>
          </Node>
        </Node>
      </Node>
    </BinaryTree>
    <BinaryTree type="DecisionTree" boostWeight="1.0000000000000000e+00" itree="8">
      <Node pos="s" depth="0" NCoef="0" IVar="0" Cut="9.2617744445800781e+01" cType="0" res="1.0299791097640991e+00" rms="1.3266237258911133e+01" purity="1.0000000000000000e+00" nType="0">
        <Node pos="l" depth="1" NCoef="0" IVar="0" Cut="1.6653987121582031e+02" cType="0" res="1.5257888793945312e+01" rms="6.6618752479553223e+00" purity="1.0000000000000000e+00" nType="0">
          <Node pos="l" depth="2" NCoef="0" IVar="0" Cut="2.3694238281250000e+02" cType="0" res="1.8042758941650391e+01" rms="3.5125706195831299e+00" purity="1.0000000000000000e+00" nType="0">
            <Node pos="l" depth="3" NCoef="0" IVar="-1" Cut="0.0000000000000000e+00" cType="1" res="1.2222211837768555e+01" rms="1.3934512138366699e+00" purity="1.0000000000000000e+00" nType="-99"/>
            <Node pos="r" depth="3" NCoef="0" IVar="-1" Cut="0.0000000000000000e+00" cType="1" res="5.0177183151245117e+00" rms="4.1260929107666016e+00" purity="1.0000000000000000e+00" nType="-99"/>
          </Node>
          <Node pos="r" depth="2" NCoef="0" IVar="0" Cut="1.2781804656982422e+02" cType="0" res="1.4444293975830078e+01" rms="7.1283960342407227e+00" purity="1.0000000000000000e+00" nType="0">
            <Node pos="l" depth="3" NCoef="0" IVar="-1" Cut="0.0000000000000000e+00" cType="1" res="3.9713680744171143e+00" rms="3.8325989246368408e+00" purity="1.0000000000000000e+00" nType="-99"/>
            <Node pos="r" depth="3" NCoef="0" IVar="-1" Cut="0.0000000000000000e+00" cType="1" res="1.8020948171615601e+00" rms="7.7515330314636230e+00" purity="1.0000000000000000e+00" nType="-99"/>
          </Node>
        </Node>
        <Node pos="r" depth="1" NCoef="0" IVar="0" Cut="5.9352962493896484e+01" cType="0" res="-2.8898859024047852e+00" rms="1.1879232406616211e+01" purity="1.0000000000000000e+00" nType="0">
          <Node pos="l" depth="2" NCoef="0" IVar="0" Cut="7.9945724487304688e+01" cType="0" res="5.3037943840026855e+00" rms="1.0030821800231934e+01" purity="1.0000000000000000e+00" nType="0">
            <Node pos="l" depth="3" NCoef="0" IVar="-1" Cut="0.0000000000000000e+00" cType="1" res="1.2809102535247803e+00" rms="8.5899314880371094e+00" purity="1.0000000000000000e+00" nType="-99"/>
            <Node pos="r" depth="3" NCoef="0" IVar="-1" Cut="0.0000000000000000e+00" cType="1" res="3.6023470759391785e-01" rms="9.8680171966552734e+00" purity="1.0000000000000000e+00" nType="-99"/>
          </Node>
          <Node pos="r" depth="2" NCoef="0" IVar="0" Cut="3.8232406616210938e+01" cType="0" res="-6.8698639869689941e+00" rms="1.0598917961120605e+01" purity="1.0000000000000000e+00" nType="0">
            <Node pos="l" depth="3" NCoef="0" IVar="-1" Cut="0.0000000000000000e+00" cType="1" res="-4.2988112568855286e-01" rms="9.8762960433959961e+00" purity="1.0000000000000000e+00" nType="-99"/>
            <Node pos="r" depth="3" NCoef="0" IVar="-1" Cut="0.0000000000000000e+00" cType="1" res="-1.1957430839538574e+00" rms="1.0409177780151367e+01" purity="1.0000000000000000e+00" nType="-99"/>
          </Node>
        </Node>
      </Node>
    </BinaryTree>
    <BinaryTree type="DecisionTree" boostWeight="1.0000000000000000e+00" itree="9">
      <Node pos="s" depth="0" NCoef="0" IVar="0" Cut="9.2617744445800781e+01" cType="0" res="9.2451322078704834e-01" rms="1.2523836135864258e+01" purity="1.0000000000000000e+00" nType="0">
        <Node pos="l" depth="1" NCoef="0" IVar="0" Cut="1.6653987121582031e+02" cType="0" res="1.3818694114685059e+01" rms="6.9835519790649414e+00" purity="1.0000000000000000e+00" nType="0">
          <Node pos="l" depth="2" NCoef="0" IVar="0" Cut="2.3694238281250000e+02" cType="0" res="1.6656625747680664e+01" rms="4.2128205299377441e+00" purity="1.0000000000000000e+00" nType="0">
            <Node pos="l" depth="3" NCoef="0" IVar="-1" Cut="0.0000000000000000e+00" cType="1" res="1.0997040748596191e+01" rms="1.5658175945281982e+00" purity="1.0000000000000000e+00" nType="-99"/>
            <Node pos="r" depth="3" NCoef="0" IVar="-1" Cut="0.0000000000000000e+00" cType="1" res="4.5120825767517090e+00" rms="4.9429640769958496e+00" purity="1.0000000000000000e+00" nType="-99"/>
          </Node>
          <Node pos="r" depth="2" NCoef="0" IVar="0" Cut="1.3133802795410156e+02" cType="0" res="1.2989597320556641e+01" rms="7.4022116661071777e+00" purity="1.0000000000000000e+00" nType="0">
            <Node pos="l" depth="3" NCoef="0" IVar="-1" Cut="0.0000000000000000e+00" cType="1" res="3.7866706848144531e+00" rms="3.9194204807281494e+00" purity="1.0000000000000000e+00" nType="-99"/>
            <Node pos="r" depth="3" NCoef="0" IVar="-1" Cut="0.0000000000000000e+00" cType="1" res="1.6434770822525024e+00" rms="7.9168648719787598e+00" purity="1.0000000000000000e+00" nType="-99"/>
          </Node>
        </Node>
        <Node pos="r" depth="1" NCoef="0" IVar="0" Cut="4.8264724731445312e+01" cType="0" res="-2.6279022693634033e+00" rms="1.1322410583496094e+01" purity="1.0000000000000000e+00" nType="0">
          <Node pos="l" depth="2" NCoef="0" IVar="0" Cut="6.5161239624023438e+01" cType="0" res="2.5417001247406006e+00" rms="1.0172382354736328e+01" purity="1.0000000000000000e+00" nType="0">
            <Node pos="l" depth="3" NCoef="0" IVar="-1" Cut="0.0000000000000000e+00" cType="1" res="7.0527529716491699e-01" rms="9.4846620559692383e+00" purity="1.0000000000000000e+00" nType="-99"/>
            <Node pos="r" depth="3" NCoef="0" IVar="-1" Cut="0.0000000000000000e+00" cType="1" res="-1.1310330033302307e-01" rms="9.6874322891235352e+00" purity="1.0000000000000000e+00" nType="-99"/>
          </Node>
          <Node pos="r" depth="2" NCoef="0" IVar="6" Cut="1.9460990428924561e+00" cType="0" res="-7.7021403312683105e+00" rms="1.0024016380310059e+01" purity="1.0000000000000000e+00" nType="0">
            <Node pos="l" depth="3" NCoef="0" IVar="-1" Cut="0.0000000000000000e+00" cType="1" res="-5.1345652341842651e-01" rms="1.0641630172729492e+01" purity="1.0000000000000000e+00" nType="-99"/>
            <Node pos="r" depth="3" NCoef="0" IVar="-1" Cut="0.0000000000000000e+00" cType="1" res="-1.0597318410873413e+00" rms="9.4429473876953125e+00" purity="1.0000000000000000e+00" nType="-99"/>
          </Node>
        </Node>
      </Node>
    </BinaryTree>
    <BinaryTree type="DecisionTree" boostWeight="1.0000000000000000e+00" itree="10">
      <Node pos="s" depth="0" NCoef="0" IVar="0" Cut="9.2617744445800781e+01" cType="0" res="8.2805413007736206e-01" rms="1.1886763572692871e+01" purity="1.0000000000000000e+00" nType="0">
        <Node pos="l" depth="1" NCoef="0" IVar="0" Cut="1.6653987121582031e+02" cType="0" res="1.2515870094299316e+01" rms="7.3047671318054199e+00" purity="1.0000000000000000e+00" nType="0">
          <Node pos="l" depth="2" NCoef="0" IVar="0" Cut="2.3694238281250000e+02" cType="0" res="1.5351061820983887e+01" rms="4.9698791503906250e+00" purity="1.0000000000000000e+00" nType="0">
            <Node pos="l" depth="3" NCoef="0" IVar="-1" Cut="0.0000000000000000e+00" cType="1" res="9.8951911926269531e+00" rms="1.9737758636474609e+00" purity="1.0000000000000000e+00" nType="-99"/>
            <Node pos="r" depth="3" NCoef="0" IVar="-1" Cut="0.0000000000000000e+00" cType="1" res="4.0577621459960938e+00" rms="5.7860279083251953e+00" purity="1.0000000000000000e+00" nType="-99"/>
          </Node>
          <Node pos="r" depth="2" NCoef="0" IVar="0" Cut="9.9658210754394531e+01" cType="0" res="1.1687573432922363e+01" rms="7.6614694595336914e+00" purity="1.0000000000000000e+00" nType="0">
            <Node pos="l" depth="3" NCoef="0" IVar="-1" Cut="0.0000000000000000e+00" cType="1" res="2.1614279747009277e+00" rms="6.8200421333312988e+00" purity="1.0000000000000000e+00" nType="-99"/>
            <Node pos="r" depth="3" NCoef="0" IVar="-1" Cut="0.0000000000000000e+00" cType="1" res="9.1854774951934814e-01" rms="9.1838264465332031e+00" purity="1.0000000000000000e+00" nType="-99"/>
          </Node>
        </Node>
        <Node pos="r" depth="1" NCoef="0" IVar="0" Cut="4.8264724731445312e+01" cType="0" res="-2.3920013904571533e+00" rms="1.0840557098388672e+01" purity="1.0000000000000000e+00" nType="0">
          <Node pos="l" depth="2" NCoef="0" IVar="0" Cut="7.5721405029296875e+01" cType="0" res="2.2039391994476318e+00" rms="9.9116277694702148e+00" purity="1.0000000000000000e+00" nType="0">
            <Node pos="l" depth="3" NCoef="0" IVar="-1" Cut="0.0000000000000000e+00" cType="1" res="9.0852993726730347e-01" rms="8.9381685256958008e+00" purity="1.0000000000000000e+00" nType="-99"/>
            <Node pos="r" depth="3" NCoef="0" IVar="-1" Cut="0.0000000000000000e+00" cType="1" res="2.5068653747439384e-02" rms="9.6057882308959961e+00" purity="1.0000000000000000e+00" nType="-99"/>
          </Node>
          <Node pos="r" depth="2" NCoef="0" IVar="0" Cut="3.2424316406250000e+01" cType="0" res="-6.9031600952148438e+00" rms="9.7650308609008789e+00" purity="1.0000000000000000e+00" nType="0">
            <Node pos="l" depth="3" NCoef="0" IVar="-1" Cut="0.0000000000000000e+00" cType="1" res="-5.6482642889022827e-01" rms="9.0789346694946289e+00" purity="1.0000000000000000e+00" nType="-99"/>
            <Node pos="r" depth="3" NCoef="0" IVar="-1" Cut="0.0000000000000000e+00" cType="1" res="-1.1640781164169312e+00" rms="1.0063600540161133e+01" purity="1.0000000000000000e+00" nType="-99"/>
          </Node>
        </Node>
      </Node>
    </BinaryTree>
    <BinaryTree type="DecisionTree" boostWeight="1.0000000000000000e+00" itree="11">
      <Node pos="s" depth="0" NCoef="0" IVar="0" Cut="9.2617744445800781e+01" cType="0" res="7.1499246358871460e-01" rms="1.1314952850341797e+01" purity="1.0000000000000000e+00" nType="0">
        <Node pos="l" depth="1" NCoef="0" IVar="0" Cut="1.6653987121582031e+02" cType="0" res="1.1240451812744141e+01" rms="7.6196455955505371e+00" purity="1.0000000000000000e+00" nType="0">
          <Node pos="l" depth="2" NCoef="0" IVar="0" Cut="2.3694238281250000e+02" cType="0" res="1.4052666664123535e+01" rms="5.7317996025085449e+00" purity="1.0000000000000000e+00" nType="0">
            <Node pos="l" depth="3" NCoef="0" IVar="-1" Cut="0.0000000000000000e+00" cType="1" res="8.9039926528930664e+00" rms="2.6063897609710693e+00" purity="1.0000000000000000e+00" nType="-99"/>
            <Node pos="r" depth="3" NCoef="0" IVar="-1" Cut="0.0000000000000000e+00" cType="1" res="3.6491577625274658e+00" rms="6.5943140983581543e+00" purity="1.0000000000000000e+00" nType="-99"/>
          </Node>
          <Node pos="r" depth="2" NCoef="0" IVar="0" Cut="1.3485800170898438e+02" cType="0" res="1.0418868064880371e+01" rms="7.9017252922058105e+00" purity="1.0000000000000000e+00" nType="0">
            <Node pos="l" depth="3" NCoef="0" IVar="-1" Cut="0.0000000000000000e+00" cType="1" res="3.4168062210083008e+00" rms="4.2184042930603027e+00" purity="1.0000000000000000e+00" nType="-99"/>
            <Node pos="r" depth="3" NCoef="0" IVar="-1" Cut="0.0000000000000000e+00" cType="1" res="1.3089412450790405e+00" rms="8.2845754623413086e+00" purity="1.0000000000000000e+00" nType="-99"/>
          </Node>
        </Node>
        <Node pos="r" depth="1" NCoef="0" IVar="0" Cut="5.5656883239746094e+01" cType="0" res="-2.1848275661468506e+00" rms="1.0410289764404297e+01" purity="1.0000000000000000e+00" nType="0">
          <Node pos="l" depth="2" NCoef="0" IVar="0" Cut="8.2057472229003906e+01" cType="0" res="3.0461328029632568e+00" rms="9.5204458236694336e+00" purity="1.0000000000000000e+00" nType="0">
            <Node pos="l" depth="3" NCoef="0" IVar="-1" Cut="0.0000000000000000e+00" cType="1" res="1.0684292316436768e+00" rms="8.1998462677001953e+00" purity="1.0000000000000000e+00" nType="-99"/>
            <Node pos="r" depth="3" NCoef="0" IVar="-1" Cut="0.0000000000000000e+00" cType="1" res="1.9402943551540375e-01" rms="9.3963165283203125e+00" purity="1.0000000000000000e+00" nType="-99"/>
          </Node>
          <Node pos="r" depth="2" NCoef="0" IVar="0" Cut="3.2424247741699219e+01" cType="0" res="-5.3893036842346191e+00" rms="9.6024761199951172e+00" purity="1.0000000000000000e+00" nType="0">
            <Node pos="l" depth="3" NCoef="0" IVar="-1" Cut="0.0000000000000000e+00" cType="1" res="-4.3032798171043396e-01" rms="9.0626697540283203e+00" purity="1.0000000000000000e+00" nType="-99"/>
            <Node pos="r" depth="3" NCoef="0" IVar="-1" Cut="0.0000000000000000e+00" cType="1" res="-1.0584833621978760e+00" rms="9.8069772720336914e+00" purity="1.0000000000000000e+00" nType="-99"/>
          </Node>
        </Node>
      </Node>
    </BinaryTree>
    <BinaryTree type="DecisionTree" boostWeight="1.0000000000000000e+00" itree="12">
      <Node pos="s" depth="0" NCoef="0" IVar="0" Cut="9.2617744445800781e+01" cType="0" res="6.2778526544570923e-01" rms="1.0832422256469727e+01" purity="1.0000000000000000e+00" nType="0">
        <Node pos="l" depth="1" NCoef="0" IVar="0" Cut="1.6653987121582031e+02" cType="0" res="1.0136420249938965e+01" rms="7.8804149627685547e+00" purity="1.0000000000000000e+00" nType="0">
          <Node pos="l" depth="2" NCoef="0" IVar="0" Cut="2.3694238281250000e+02" cType="0" res="1.2809500694274902e+01" rms="6.4829316139221191e+00" purity="1.0000000000000000e+00" nType="0">
            <Node pos="l" depth="3" NCoef="0" IVar="-1" Cut="0.0000000000000000e+00" cType="1" res="8.0122547149658203e+00" rms="3.4701461791992188e+00" purity="1.0000000000000000e+00" nType="-99"/>
            <Node pos="r" depth="3" NCoef="0" IVar="-1" Cut="0.0000000000000000e+00" cType="1" res="3.2819645404815674e+00" rms="7.3441934585571289e+00" purity="1.0000000000000000e+00" nType="-99"/>
          </Node>
          <Node pos="r" depth="2" NCoef="0" IVar="0" Cut="1.3485800170898438e+02" cType="0" res="9.3554849624633789e+00" rms="8.0788450241088867e+00" purity="1.0000000000000000e+00" nType="0">
            <Node pos="l" depth="3" NCoef="0" IVar="-1" Cut="0.0000000000000000e+00" cType="1" res="3.0719604492187500e+00" rms="4.8653860092163086e+00" purity="1.0000000000000000e+00" nType="-99"/>
            <Node pos="r" depth="3" NCoef="0" IVar="-1" Cut="0.0000000000000000e+00" cType="1" res="1.1729454994201660e+00" rms="8.4170799255371094e+00" purity="1.0000000000000000e+00" nType="-99"/>
          </Node>
        </Node>
        <Node pos="r" depth="1" NCoef="0" IVar="0" Cut="6.3049041748046875e+01" cType="0" res="-1.9918943643569946e+00" rms="1.0039328575134277e+01" purity="1.0000000000000000e+00" nType="0">
          <Node pos="l" depth="2" NCoef="0" IVar="0" Cut="8.5577529907226562e+01" cType="0" res="3.9689631462097168e+00" rms="9.0587053298950195e+00" purity="1.0000000000000000e+00" nType="0">
            <Node pos="l" depth="3" NCoef="0" IVar="-1" Cut="0.0000000000000000e+00" cType="1" res="1.1526263952255249e+00" rms="7.6557745933532715e+00" purity="1.0000000000000000e+00" nType="-99"/>
            <Node pos="r" depth="3" NCoef="0" IVar="-1" Cut="0.0000000000000000e+00" cType="1" res="3.5201892256736755e-01" rms="9.0385694503784180e+00" purity="1.0000000000000000e+00" nType="-99"/>
          </Node>
          <Node pos="r" depth="2" NCoef="0" IVar="0" Cut="4.4744594573974609e+01" cType="0" res="-4.2774777412414551e+00" rms="9.4403963088989258e+00" purity="1.0000000000000000e+00" nType="0">
            <Node pos="l" depth="3" NCoef="0" IVar="-1" Cut="0.0000000000000000e+00" cType="1" res="-1.8609121441841125e-01" rms="9.0380754470825195e+00" purity="1.0000000000000000e+00" nType="-99"/>
            <Node pos="r" depth="3" NCoef="0" IVar="-1" Cut="0.0000000000000000e+00" cType="1" res="-7.4760311841964722e-01" rms="9.2626791000366211e+00" purity="1.0000000000000000e+00" nType="-99"/>
          </Node>
        </Node>
      </Node>
    </BinaryTree>
    <BinaryTree type="DecisionTree" boostWeight="1.0000000000000000e+00" itree="13">
      <Node pos="s" depth="0" NCoef="0" IVar="0" Cut="9.2617744445800781e+01" cType="0" res="5.5601221323013306e-01" rms="1.0418391227722168e+01" purity="1.0000000000000000e+00" nType="0">
        <Node pos="l" depth="1" NCoef="0" IVar="0" Cut="1.6653987121582031e+02" cType="0" res="9.1263751983642578e+00" rms="8.1260290145874023e+00" purity="1.0000000000000000e+00" nType="0">
          <Node pos="l" depth="2" NCoef="0" IVar="0" Cut="2.3694238281250000e+02" cType="0" res="1.1616109848022461e+01" rms="7.1909494400024414e+00" purity="1.0000000000000000e+00" nType="0">
            <Node pos="l" depth="3" NCoef="0" IVar="-1" Cut="0.0000000000000000e+00" cType="1" res="7.2099313735961914e+00" rms="4.5155611038208008e+00" purity="1.0000000000000000e+00" nType="-99"/>
            <Node pos="r" depth="3" NCoef="0" IVar="-1" Cut="0.0000000000000000e+00" cType="1" res="2.9520349502563477e+00" rms="7.9948787689208984e+00" purity="1.0000000000000000e+00" nType="-99"/>
          </Node>
          <Node pos="r" depth="2" NCoef="0" IVar="0" Cut="1.3837797546386719e+02" cType="0" res="8.3990030288696289e+00" rms="8.2387275695800781e+00" purity="1.0000000000000000e+00" nType="0">
            <Node pos="l" depth="3" NCoef="0" IVar="-1" Cut="0.0000000000000000e+00" cType="1" res="2.9687910079956055e+00" rms="4.8239946365356445e+00" purity="1.0000000000000000e+00" nType="-99"/>
            <Node pos="r" depth="3" NCoef="0" IVar="-1" Cut="0.0000000000000000e+00" cType="1" res="1.0738798379898071e+00" rms="8.5067739486694336e+00" purity="1.0000000000000000e+00" nType="-99"/>
          </Node>
        </Node>
        <Node pos="r" depth="1" NCoef="0" IVar="0" Cut="6.3049041748046875e+01" cType="0" res="-1.8051682710647583e+00" rms="9.7181997299194336e+00" purity="1.0000000000000000e+00" nType="0">
          <Node pos="l" depth="2" NCoef="0" IVar="0" Cut="8.4169502258300781e+01" cType="0" res="3.5047397613525391e+00" rms="8.9418354034423828e+00" purity="1.0000000000000000e+00" nType="0">
            <Node pos="l" depth="3" NCoef="0" IVar="-1" Cut="0.0000000000000000e+00" cType="1" res="9.6523433923721313e-01" rms="7.9715394973754883e+00" purity="1.0000000000000000e+00" nType="-99"/>
            <Node pos="r" depth="3" NCoef="0" IVar="-1" Cut="0.0000000000000000e+00" cType="1" res="2.9538261890411377e-01" rms="8.9321746826171875e+00" purity="1.0000000000000000e+00" nType="-99"/>
          </Node>
          <Node pos="r" depth="2" NCoef="0" IVar="0" Cut="3.5592414855957031e+01" cType="0" res="-3.8411569595336914e+00" rms="9.2218227386474609e+00" purity="1.0000000000000000e+00" nType="0">
            <Node pos="l" depth="3" NCoef="0" IVar="-1" Cut="0.0000000000000000e+00" cType="1" res="-2.6750785112380981e-01" rms="8.8185615539550781e+00" purity="1.0000000000000000e+00" nType="-99"/>
            <Node pos="r" depth="3" NCoef="0" IVar="-1" Cut="0.0000000000000000e+00" cType="1" res="-8.2352048158645630e-01" rms="9.2330703735351562e+00" purity="1.0000000000000000e+00" nType="-99"/>
          </Node>
        </Node>
      </Node>
    </BinaryTree>
    <BinaryTree type="DecisionTree" boostWeight="1.0000000000000000e+00" itree="14">
      <Node pos="s" depth="0" NCoef="0" IVar="0" Cut="9.2617744445800781e+01" cType="0" res="4.8379418253898621e-01" rms="1.0060901641845703e+01" purity="1.0000000000000000e+00" nType="0">
        <Node pos="l" depth="1" NCoef="0" IVar="0" Cut="2.4046150207519531e+02" cType="0" res="8.1953372955322266e+00" rms="8.3386898040771484e+00" purity="1.0000000000000000e+00" nType="0">
          <Node pos="l" depth="2" NCoef="0" IVar="0" Cut="3.0734387207031250e+02" cType="0" res="1.2792324066162109e+01" rms="5.1017823219299316e+00" purity="1.0000000000000000e+00" nType="0">
            <Node pos="l" depth="3" NCoef="0" IVar="-1" Cut="0.0000000000000000e+00" cType="1" res="1.4079293251037598e+01" rms="1.1436964273452759e+00" purity="1.0000000000000000e+00" nType="-99"/>
            <Node pos="r" depth="3" NCoef="0" IVar="-1" Cut="0.0000000000000000e+00" cType="1" res="3.9857368469238281e+00" rms="6.3939476013183594e+00" purity="1.0000000000000000e+00" nType="-99"/>
          </Node>
          <Node pos="r" depth="2" NCoef="0" IVar="0" Cut="1.1373812866210938e+02" cType="0" res="7.8509297370910645e+00" rms="8.4315681457519531e+00" purity="1.0000000000000000e+00" nType="0">
            <Node pos="l" depth="3" NCoef="0" IVar="-1" Cut="0.0000000000000000e+00" cType="1" res="1.9387433528900146e+00" rms="7.6507368087768555e+00" purity="1.0000000000000000e+00" nType="-99"/>
            <Node pos="r" depth="3" NCoef="0" IVar="-1" Cut="0.0000000000000000e+00" cType="1" res="7.4952405691146851e-01" rms="8.8698377609252930e+00" purity="1.0000000000000000e+00" nType="-99"/>
          </Node>
        </Node>
        <Node pos="r" depth="1" NCoef="0" IVar="0" Cut="4.8264724731445312e+01" cType="0" res="-1.6407771110534668e+00" rms="9.4368648529052734e+00" purity="1.0000000000000000e+00" nType="0">
          <Node pos="l" depth="2" NCoef="0" IVar="0" Cut="6.7273277282714844e+01" cType="0" res="1.3649111986160278e+00" rms="9.0070877075195312e+00" purity="1.0000000000000000e+00" nType="0">
            <Node pos="l" depth="3" NCoef="0" IVar="-1" Cut="0.0000000000000000e+00" cType="1" res="4.5027375221252441e-01" rms="8.7937021255493164e+00" purity="1.0000000000000000e+00" nType="-99"/>
            <Node pos="r" depth="3" NCoef="0" IVar="-1" Cut="0.0000000000000000e+00" cType="1" res="-7.0368885993957520e-02" rms="8.7756023406982422e+00" purity="1.0000000000000000e+00" nType="-99"/>
          </Node>
          <Node pos="r" depth="2" NCoef="0" IVar="6" Cut="1.9460990428924561e+00" cType="0" res="-4.5910191535949707e+00" rms="8.9030084609985352e+00" purity="1.0000000000000000e+00" nType="0">
            <Node pos="l" depth="3" NCoef="0" IVar="-1" Cut="0.0000000000000000e+00" cType="1" res="-2.3419889807701111e-01" rms="9.3481435775756836e+00" purity="1.0000000000000000e+00" nType="-99"/>
            <Node pos="r" depth="3" NCoef="0" IVar="-1" Cut="0.0000000000000000e+00" cType="1" res="-7.0213174819946289e-01" rms="8.4663143157958984e+00" purity="1.0000000000000000e+00" nType="-99"/>
          </Node>
        </Node>
      </Node>
    </BinaryTree>
    <BinaryTree type="DecisionTree" boostWeight="1.0000000000000000e+00" itree="15">
      <Node pos="s" depth="0" NCoef="0" IVar="0" Cut="9.2617744445800781e+01" cType="0" res="4.2195782065391541e-01" rms="9.7617158889770508e+00" purity="1.0000000000000000e+00" nType="0">
        <Node pos="l" depth="1" NCoef="0" IVar="0" Cut="2.4046150207519531e+02" cType="0" res="7.3640556335449219e+00" rms="8.5170488357543945e+00" purity="1.0000000000000000e+00" nType="0">
          <Node pos="l" depth="2" NCoef="0" IVar="0" Cut="3.0734387207031250e+02" cType="0" res="1.1990447044372559e+01" rms="5.7077112197875977e+00" purity="1.0000000000000000e+00" nType="0">
            <Node pos="l" depth="3" NCoef="0" IVar="-1" Cut="0.0000000000000000e+00" cType="1" res="1.2670097351074219e+01" rms="1.2389619350433350e+00" purity="1.0000000000000000e+00" nType="-99"/>
            <Node pos="r" depth="3" NCoef="0" IVar="-1" Cut="0.0000000000000000e+00" cType="1" res="3.5869274139404297e+00" rms="7.1046800613403320e+00" purity="1.0000000000000000e+00" nType="-99"/>
          </Node>
          <Node pos="r" depth="2" NCoef="0" IVar="0" Cut="1.2781804656982422e+02" cType="0" res="7.0174446105957031e+00" rms="8.5912981033325195e+00" purity="1.0000000000000000e+00" nType="0">
            <Node pos="l" depth="3" NCoef="0" IVar="-1" Cut="0.0000000000000000e+00" cType="1" res="2.1215968132019043e+00" rms="7.7743330001831055e+00" purity="1.0000000000000000e+00" nType="-99"/>
            <Node pos="r" depth="3" NCoef="0" IVar="-1" Cut="0.0000000000000000e+00" cType="1" res="7.7329725027084351e-01" rms="8.7553091049194336e+00" purity="1.0000000000000000e+00" nType="-99"/>
          </Node>
        </Node>
        <Node pos="r" depth="1" NCoef="0" IVar="0" Cut="4.8264724731445312e+01" cType="0" res="-1.4906270503997803e+00" rms="9.1991176605224609e+00" purity="1.0000000000000000e+00" nType="0">
          <Node pos="l" depth="2" NCoef="0" IVar="0" Cut="7.7833442687988281e+01" cType="0" res="1.1977828741073608e+00" rms="8.8666410446166992e+00" purity="1.0000000000000000e+00" nType="0">
            <Node pos="l" depth="3" NCoef="0" IVar="-1" Cut="0.0000000000000000e+00" cType="1" res="6.1156618595123291e-01" rms="8.4726524353027344e+00" purity="1.0000000000000000e+00" nType="-99"/>
            <Node pos="r" depth="3" NCoef="0" IVar="-1" Cut="0.0000000000000000e+00" cType="1" res="6.3838292844593525e-03" rms="8.7291860580444336e+00" purity="1.0000000000000000e+00" nType="-99"/>
          </Node>
          <Node pos="r" depth="2" NCoef="0" IVar="6" Cut="1.9460990428924561e+00" cType="0" res="-4.1294436454772949e+00" rms="8.7442474365234375e+00" purity="1.0000000000000000e+00" nType="0">
            <Node pos="l" depth="3" NCoef="0" IVar="-1" Cut="0.0000000000000000e+00" cType="1" res="-2.1528038382530212e-01" rms="9.1878681182861328e+00" purity="1.0000000000000000e+00" nType="-99"/>
            <Node pos="r" depth="3" NCoef="0" IVar="-1" Cut="0.0000000000000000e+00" cType="1" res="-6.3669151067733765e-01" rms="8.3535785675048828e+00" purity="1.0000000000000000e+00" nType="-99"/>
          </Node>
        </Node>
      </Node>
    </BinaryTree>
    <BinaryTree type="DecisionTree" boostWeight="1.0000000000000000e+00" itree="16">
      <Node pos="s" depth="0" NCoef="0" IVar="0" Cut="9.2617744445800781e+01" cType="0" res="3.7145194411277771e-01" rms="9.5096712112426758e+00" purity="1.0000000000000000e+00" nType="0">
        <Node pos="l" depth="1" NCoef="0" IVar="0" Cut="2.4046150207519531e+02" cType="0" res="6.6235451698303223e+00" rms="8.6656818389892578e+00" purity="1.0000000000000000e+00" nType="0">
          <Node pos="l" depth="2" NCoef="0" IVar="0" Cut="3.0734387207031250e+02" cType="0" res="1.1225588798522949e+01" rms="6.2832107543945312e+00" purity="1.0000000000000000e+00" nType="0">
            <Node pos="l" depth="3" NCoef="0" IVar="-1" Cut="0.0000000000000000e+00" cType="1" res="1.1402056694030762e+01" rms="1.6734973192214966e+00" purity="1.0000000000000000e+00" nType="-99"/>
            <Node pos="r" depth="3" NCoef="0" IVar="-1" Cut="0.0000000000000000e+00" cType="1" res="3.2280850410461426e+00" rms="7.7267589569091797e+00" purity="1.0000000000000000e+00" nType="-99"/>
          </Node>
          <Node pos="r" depth="2" NCoef="0" IVar="0" Cut="1.4189796447753906e+02" cType="0" res="6.2787585258483887e+00" rms="8.7210531234741211e+00" purity="1.0000000000000000e+00" nType="0">
            <Node pos="l" depth="3" NCoef="0" IVar="-1" Cut="0.0000000000000000e+00" cType="1" res="2.3541378974914551e+00" rms="7.9387621879577637e+00" purity="1.0000000000000000e+00" nType="-99"/>
            <Node pos="r" depth="3" NCoef="0" IVar="-1" Cut="0.0000000000000000e+00" cType="1" res="7.5761938095092773e-01" rms="8.7460794448852539e+00" purity="1.0000000000000000e+00" nType="-99"/>
          </Node>
        </Node>
        <Node pos="r" depth="1" NCoef="0" IVar="0" Cut="5.9352962493896484e+01" cType="0" res="-1.3510330915451050e+00" rms="8.9957742691040039e+00" purity="1.0000000000000000e+00" nType="0">
          <Node pos="l" depth="2" NCoef="0" IVar="6" Cut="4.1150765419006348e+00" cType="0" res="2.1107132434844971e+00" rms="8.6946897506713867e+00" purity="1.0000000000000000e+00" nType="0">
            <Node pos="l" depth="3" NCoef="0" IVar="-1" Cut="0.0000000000000000e+00" cType="1" res="6.0885292291641235e-01" rms="8.5177507400512695e+00" purity="1.0000000000000000e+00" nType="-99"/>
            <Node pos="r" depth="3" NCoef="0" IVar="-1" Cut="0.0000000000000000e+00" cType="1" res="9.6979394555091858e-02" rms="8.5368852615356445e+00" purity="1.0000000000000000e+00" nType="-99"/>
          </Node>
          <Node pos="r" depth="2" NCoef="0" IVar="0" Cut="2.9784263610839844e+01" cType="0" res="-3.0325334072113037e+00" rms="8.6523284912109375e+00" purity="1.0000000000000000e+00" nType="0">
            <Node pos="l" depth="3" NCoef="0" IVar="-1" Cut="0.0000000000000000e+00" cType="1" res="-2.4945925176143646e-01" rms="8.2652626037597656e+00" purity="1.0000000000000000e+00" nType="-99"/>
            <Node pos="r" depth="3" NCoef="0" IVar="-1" Cut="0.0000000000000000e+00" cType="1" res="-7.9591584205627441e-01" rms="9.0082378387451172e+00" purity="1.0000000000000000e+00" nType="-99"/>
          </Node>
        </Node>
      </Node>
    </BinaryTree>
    <BinaryTree type="DecisionTree" boostWeight="1.0000000000000000e+00" itree="17">
      <Node pos="s" depth="0" NCoef="0" IVar="0" Cut="9.2617744445800781e+01" cType="0" res="3.2381290197372437e-01" rms="9.2912569046020508e+00" purity="1.0000000000000000e+00" nType="0">
        <Node pos="l" depth="1" NCoef="0" IVar="0" Cut="2.4046150207519531e+02" cType="0" res="5.9627943038940430e+00" rms="8.7797517776489258e+00" purity="1.0000000000000000e+00" nType="0">
          <Node pos="l" depth="2" NCoef="0" IVar="0" Cut="3.0734387207031250e+02" cType="0" res="1.0492217063903809e+01" rms="6.7971062660217285e+00" purity="1.0000000000000000e+00" nType="0">
            <Node pos="l" depth="3" NCoef="0" IVar="-1" Cut="0.0000000000000000e+00" cType="1" res="1.0260923385620117e+01" rms="2.2065420150756836e+00" purity="1.0000000000000000e+00" nType="-99"/>
            <Node pos="r" depth="3" NCoef="0" IVar="-1" Cut="0.0000000000000000e+00" cType="1" res="2.9051308631896973e+00" rms="8.2474975585937500e+00" purity="1.0000000000000000e+00" nType="-99"/>
          </Node>
          <Node pos="r" depth="2" NCoef="0" IVar="0" Cut="1.0669817352294922e+02" cType="0" res="5.6234483718872070e+00" rms="8.8173484802246094e+00" purity="1.0000000000000000e+00" nType="0">
            <Node pos="l" depth="3" NCoef="0" IVar="-1" Cut="0.0000000000000000e+00" cType="1" res="1.3009028434753418e+00" rms="8.4723119735717773e+00" purity="1.0000000000000000e+00" nType="-99"/>
            <Node pos="r" depth="3" NCoef="0" IVar="-1" Cut="0.0000000000000000e+00" cType="1" res="4.0745764970779419e-01" rms="9.0216503143310547e+00" purity="1.0000000000000000e+00" nType="-99"/>
          </Node>
        </Node>
        <Node pos="r" depth="1" NCoef="0" IVar="0" Cut="4.4568645477294922e+01" cType="0" res="-1.2297564744949341e+00" rms="8.8147573471069336e+00" purity="1.0000000000000000e+00" nType="0">
          <Node pos="l" depth="2" NCoef="0" IVar="6" Cut="4.1150765419006348e+00" cType="0" res="7.2354626655578613e-01" rms="8.5865869522094727e+00" purity="1.0000000000000000e+00" nType="0">
            <Node pos="l" depth="3" NCoef="0" IVar="-1" Cut="0.0000000000000000e+00" cType="1" res="3.8974902033805847e-01" rms="8.6156101226806641e+00" purity="1.0000000000000000e+00" nType="-99"/>
            <Node pos="r" depth="3" NCoef="0" IVar="-1" Cut="0.0000000000000000e+00" cType="1" res="-6.9226324558258057e-02" rms="8.3357543945312500e+00" purity="1.0000000000000000e+00" nType="-99"/>
          </Node>
          <Node pos="r" depth="2" NCoef="0" IVar="6" Cut="1.9460990428924561e+00" cType="0" res="-3.6927511692047119e+00" rms="8.4752073287963867e+00" purity="1.0000000000000000e+00" nType="0">
            <Node pos="l" depth="3" NCoef="0" IVar="-1" Cut="0.0000000000000000e+00" cType="1" res="-2.0499965548515320e-01" rms="8.9092588424682617e+00" purity="1.0000000000000000e+00" nType="-99"/>
            <Node pos="r" depth="3" NCoef="0" IVar="-1" Cut="0.0000000000000000e+00" cType="1" res="-5.6968498229980469e-01" rms="8.1487340927124023e+00" purity="1.0000000000000000e+00" nType="-99"/>
          </Node>
        </Node>
      </Node>
    </BinaryTree>
    <BinaryTree type="DecisionTree" boostWeight="1.0000000000000000e+00" itree="18">
      <Node pos="s" depth="0" NCoef="0" IVar="0" Cut="9.2617744445800781e+01" cType="0" res="2.8467980027198792e-01" rms="9.1114025115966797e+00" purity="1.0000000000000000e+00" nType="0">
        <Node pos="l" depth="1" NCoef="0" IVar="0" Cut="2.4046150207519531e+02" cType="0" res="5.3594617843627930e+00" rms="8.8825159072875977e+00" purity="1.0000000000000000e+00" nType="0">
          <Node pos="l" depth="2" NCoef="0" IVar="0" Cut="3.0734387207031250e+02" cType="0" res="9.7887897491455078e+00" rms="7.2663540840148926e+00" purity="1.0000000000000000e+00" nType="0">
            <Node pos="l" depth="3" NCoef="0" IVar="-1" Cut="0.0000000000000000e+00" cType="1" res="9.2341012954711914e+00" rms="2.9101395606994629e+00" purity="1.0000000000000000e+00" nType="-99"/>
            <Node pos="r" depth="3" NCoef="0" IVar="-1" Cut="0.0000000000000000e+00" cType="1" res="2.6145942211151123e+00" rms="8.6791296005249023e+00" purity="1.0000000000000000e+00" nType="-99"/>
          </Node>
          <Node pos="r" depth="2" NCoef="0" IVar="0" Cut="1.4189796447753906e+02" cType="0" res="5.0276145935058594e+00" rms="8.9036216735839844e+00" purity="1.0000000000000000e+00" nType="0">
            <Node pos="l" depth="3" NCoef="0" IVar="-1" Cut="0.0000000000000000e+00" cType="1" res="1.9871056079864502e+00" rms="8.4607772827148438e+00" purity="1.0000000000000000e+00" nType="-99"/>
            <Node pos="r" depth="3" NCoef="0" IVar="-1" Cut="0.0000000000000000e+00" cType="1" res="5.8606535196304321e-01" rms="8.8323783874511719e+00" purity="1.0000000000000000e+00" nType="-99"/>
          </Node>
        </Node>
        <Node pos="r" depth="1" NCoef="0" IVar="0" Cut="6.3049041748046875e+01" cType="0" res="-1.1134495735168457e+00" rms="8.6661624908447266e+00" purity="1.0000000000000000e+00" nType="0">
          <Node pos="l" depth="2" NCoef="0" IVar="0" Cut="8.5577529907226562e+01" cType="0" res="2.1922147274017334e+00" rms="8.4738454818725586e+00" purity="1.0000000000000000e+00" nType="0">
            <Node pos="l" depth="3" NCoef="0" IVar="-1" Cut="0.0000000000000000e+00" cType="1" res="7.8272324800491333e-01" rms="7.7553677558898926e+00" purity="1.0000000000000000e+00" nType="-99"/>
            <Node pos="r" depth="3" NCoef="0" IVar="-1" Cut="0.0000000000000000e+00" cType="1" res="1.7945820093154907e-01" rms="8.4541349411010742e+00" purity="1.0000000000000000e+00" nType="-99"/>
          </Node>
          <Node pos="r" depth="2" NCoef="0" IVar="0" Cut="3.1016326904296875e+01" cType="0" res="-2.3809471130371094e+00" rms="8.4005842208862305e+00" purity="1.0000000000000000e+00" nType="0">
            <Node pos="l" depth="3" NCoef="0" IVar="-1" Cut="0.0000000000000000e+00" cType="1" res="-1.8758086860179901e-01" rms="8.0862865447998047e+00" purity="1.0000000000000000e+00" nType="-99"/>
            <Node pos="r" depth="3" NCoef="0" IVar="-1" Cut="0.0000000000000000e+00" cType="1" res="-6.4931106567382812e-01" rms="8.6763381958007812e+00" purity="1.0000000000000000e+00" nType="-99"/>
          </Node>
        </Node>
      </Node>
    </BinaryTree>
    <BinaryTree type="DecisionTree" boostWeight="1.0000000000000000e+00" itree="19">
      <Node pos="s" depth="0" NCoef="0" IVar="0" Cut="9.2617744445800781e+01" cType="0" res="2.4854934215545654e-01" rms="8.9378614425659180e+00" purity="1.0000000000000000e+00" nType="0">
        <Node pos="l" depth="1" NCoef="0" IVar="0" Cut="3.1438311767578125e+02" cType="0" res="4.8144550323486328e+00" rms="8.9427690505981445e+00" purity="1.0000000000000000e+00" nType="0">
          <Node pos="l" depth="2" NCoef="0" IVar="0" Cut="3.7774771118164062e+02" cType="0" res="1.2066535949707031e+01" rms="3.2774076461791992e+00" purity="1.0000000000000000e+00" nType="0">
            <Node pos="l" depth="3" NCoef="0" IVar="-1" Cut="0.0000000000000000e+00" cType="1" res="1.7019273757934570e+01" rms="1.7916285991668701e+00" purity="1.0000000000000000e+00" nType="-99"/>
            <Node pos="r" depth="3" NCoef="0" IVar="-1" Cut="0.0000000000000000e+00" cType="1" res="5.4256978034973145e+00" rms="4.1035418510437012e+00" purity="1.0000000000000000e+00" nType="-99"/>
          </Node>
          <Node pos="r" depth="2" NCoef="0" IVar="0" Cut="1.8765797424316406e+02" cType="0" res="4.6175742149353027e+00" rms="8.9658279418945312e+00" purity="1.0000000000000000e+00" nType="0">
            <Node pos="l" depth="3" NCoef="0" IVar="-1" Cut="0.0000000000000000e+00" cType="1" res="2.8942399024963379e+00" rms="7.4343833923339844e+00" purity="1.0000000000000000e+00" nType="-99"/>
            <Node pos="r" depth="3" NCoef="0" IVar="-1" Cut="0.0000000000000000e+00" cType="1" res="6.6004341840744019e-01" rms="8.9888305664062500e+00" purity="1.0000000000000000e+00" nType="-99"/>
          </Node>
        </Node>
        <Node pos="r" depth="1" NCoef="0" IVar="0" Cut="6.3049041748046875e+01" cType="0" res="-1.0093818902969360e+00" rms="8.5167598724365234e+00" purity="1.0000000000000000e+00" nType="0">
          <Node pos="l" depth="2" NCoef="0" IVar="0" Cut="8.5577529907226562e+01" cType="0" res="1.9551475048065186e+00" rms="8.4081325531005859e+00" purity="1.0000000000000000e+00" nType="0">
            <Node pos="l" depth="3" NCoef="0" IVar="-1" Cut="0.0000000000000000e+00" cType="1" res="7.0276468992233276e-01" rms="7.8551058769226074e+00" purity="1.0000000000000000e+00" nType="-99"/>
            <Node pos="r" depth="3" NCoef="0" IVar="-1" Cut="0.0000000000000000e+00" cType="1" res="1.5942481160163879e-01" rms="8.3870477676391602e+00" purity="1.0000000000000000e+00" nType="-99"/>
          </Node>
          <Node pos="r" depth="2" NCoef="0" IVar="6" Cut="2.4598860740661621e+00" cType="0" res="-2.1460773944854736e+00" rms="8.2812013626098633e+00" purity="1.0000000000000000e+00" nType="0">
            <Node pos="l" depth="3" NCoef="0" IVar="-1" Cut="0.0000000000000000e+00" cType="1" res="-1.1055505834519863e-02" rms="8.6322765350341797e+00" purity="1.0000000000000000e+00" nType="-99"/>
            <Node pos="r" depth="3" NCoef="0" IVar="-1" Cut="0.0000000000000000e+00" cType="1" res="-3.9305928349494934e-01" rms="7.9385547637939453e+00" purity="1.0000000000000000e+00" nType="-99"/>
          </Node>
        </Node>
      </Node>
    </BinaryTree>
    <BinaryTree type="DecisionTree" boostWeight="1.0000000000000000e+00" itree="20">
      <Node pos="s" depth="0" NCoef="0" IVar="0" Cut="9.2617744445800781e+01" cType="0" res="2.2707936167716980e-01" rms="8.8084716796875000e+00" purity="1.0000000000000000e+00" nType="0">
        <Node pos="l" depth="1" NCoef="0" IVar="0" Cut="3.1438311767578125e+02" cType="0" res="4.3477888107299805e+00" rms="9.0091190338134766e+00" purity="1.0000000000000000e+00" nType="0">
          <Node pos="l" depth="2" NCoef="0" IVar="0" Cut="3.7774771118164062e+02" cType="0" res="1.1629387855529785e+01" rms="3.9153027534484863e+00" purity="1.0000000000000000e+00" nType="0">
            <Node pos="l" depth="3" NCoef="0" IVar="-1" Cut="0.0000000000000000e+00" cType="1" res="1.5317030906677246e+01" rms="2.1074540615081787e+00" purity="1.0000000000000000e+00" nType="-99"/>
            <Node pos="r" depth="3" NCoef="0" IVar="-1" Cut="0.0000000000000000e+00" cType="1" res="4.8826189041137695e+00" rms="4.8923583030700684e+00" purity="1.0000000000000000e+00" nType="-99"/>
          </Node>
          <Node pos="r" depth="2" NCoef="0" IVar="0" Cut="1.3485812377929688e+02" cType="0" res="4.1501069068908691e+00" rms="9.0262393951416016e+00" purity="1.0000000000000000e+00" nType="0">
            <Node pos="l" depth="3" NCoef="0" IVar="-1" Cut="0.0000000000000000e+00" cType="1" res="1.5429699420928955e+00" rms="8.8834819793701172e+00" purity="1.0000000000000000e+00" nType="-99"/>
            <Node pos="r" depth="3" NCoef="0" IVar="-1" Cut="0.0000000000000000e+00" cType="1" res="4.3131628632545471e-01" rms="8.8657360076904297e+00" purity="1.0000000000000000e+00" nType="-99"/>
          </Node>
        </Node>
        <Node pos="r" depth="1" NCoef="0" IVar="0" Cut="4.4568645477294922e+01" cType="0" res="-9.0819805860519409e-01" rms="8.4045953750610352e+00" purity="1.0000000000000000e+00" nType="0">
          <Node pos="l" depth="2" NCoef="0" IVar="6" Cut="4.1150765419006348e+00" cType="0" res="5.9601980447769165e-01" rms="8.2876806259155273e+00" purity="1.0000000000000000e+00" nType="0">
            <Node pos="l" depth="3" NCoef="0" IVar="-1" Cut="0.0000000000000000e+00" cType="1" res="3.2754448056221008e-01" rms="8.4282865524291992e+00" purity="1.0000000000000000e+00" nType="-99"/>
            <Node pos="r" depth="3" NCoef="0" IVar="-1" Cut="0.0000000000000000e+00" cType="1" res="-6.1558999121189117e-02" rms="8.0438184738159180e+00" purity="1.0000000000000000e+00" nType="-99"/>
          </Node>
          <Node pos="r" depth="2" NCoef="0" IVar="0" Cut="2.9080160140991211e+01" cType="0" res="-2.8049242496490479e+00" rms="8.1637849807739258e+00" purity="1.0000000000000000e+00" nType="0">
            <Node pos="l" depth="3" NCoef="0" IVar="-1" Cut="0.0000000000000000e+00" cType="1" res="-2.2741709649562836e-01" rms="7.6820983886718750e+00" purity="1.0000000000000000e+00" nType="-99"/>
            <Node pos="r" depth="3" NCoef="0" IVar="-1" Cut="0.0000000000000000e+00" cType="1" res="-6.0573774576187134e-01" rms="8.6155681610107422e+00" purity="1.0000000000000000e+00" nType="-99"/>
          </Node>
        </Node>
      </Node>
    </BinaryTree>
    <BinaryTree type="DecisionTree" boostWeight="1.0000000000000000e+00" itree="21">
      <Node pos="s" depth="0" NCoef="0" IVar="0" Cut="9.2617744445800781e+01" cType="0" res="2.0081444084644318e-01" rms="8.6858358383178711e+00" purity="1.0000000000000000e+00" nType="0">
        <Node pos="l" depth="1" NCoef="0" IVar="0" Cut="3.1438311767578125e+02" cType="0" res="3.9134500026702881e+00" rms="9.0463571548461914e+00" purity="1.0000000000000000e+00" nType="0">
          <Node pos="l" depth="2" NCoef="0" IVar="0" Cut="3.7774771118164062e+02" cType="0" res="1.1149494171142578e+01" rms="4.5210933685302734e+00" purity="1.0000000000000000e+00" nType="0">
            <Node pos="l" depth="3" NCoef="0" IVar="-1" Cut="0.0000000000000000e+00" cType="1" res="1.3785015106201172e+01" rms="2.5090003013610840e+00" purity="1.0000000000000000e+00" nType="-99"/>
            <Node pos="r" depth="3" NCoef="0" IVar="-1" Cut="0.0000000000000000e+00" cType="1" res="4.3938555717468262e+00" rms="5.5994901657104492e+00" purity="1.0000000000000000e+00" nType="-99"/>
          </Node>
          <Node pos="r" depth="2" NCoef="0" IVar="0" Cut="1.9821794128417969e+02" cType="0" res="3.7170050144195557e+00" rms="9.0577754974365234e+00" purity="1.0000000000000000e+00" nType="0">
            <Node pos="l" depth="3" NCoef="0" IVar="-1" Cut="0.0000000000000000e+00" cType="1" res="2.8205554485321045e+00" rms="7.8513393402099609e+00" purity="1.0000000000000000e+00" nType="-99"/>
            <Node pos="r" depth="3" NCoef="0" IVar="-1" Cut="0.0000000000000000e+00" cType="1" res="5.3795480728149414e-01" rms="9.0378646850585938e+00" purity="1.0000000000000000e+00" nType="-99"/>
          </Node>
        </Node>
        <Node pos="r" depth="1" NCoef="0" IVar="0" Cut="6.3049041748046875e+01" cType="0" res="-8.2203644514083862e-01" rms="8.2969141006469727e+00" purity="1.0000000000000000e+00" nType="0">
          <Node pos="l" depth="2" NCoef="0" IVar="0" Cut="8.6985557556152344e+01" cType="0" res="1.6822791099548340e+00" rms="8.3012800216674805e+00" purity="1.0000000000000000e+00" nType="0">
            <Node pos="l" depth="3" NCoef="0" IVar="-1" Cut="0.0000000000000000e+00" cType="1" res="6.9292467832565308e-01" rms="7.7010731697082520e+00" purity="1.0000000000000000e+00" nType="-99"/>
            <Node pos="r" depth="3" NCoef="0" IVar="-1" Cut="0.0000000000000000e+00" cType="1" res="1.4402627944946289e-01" rms="8.2864866256713867e+00" purity="1.0000000000000000e+00" nType="-99"/>
          </Node>
          <Node pos="r" depth="2" NCoef="0" IVar="0" Cut="3.1016326904296875e+01" cType="0" res="-1.7822711467742920e+00" rms="8.0922317504882812e+00" purity="1.0000000000000000e+00" nType="0">
            <Node pos="l" depth="3" NCoef="0" IVar="-1" Cut="0.0000000000000000e+00" cType="1" res="-1.3917824625968933e-01" rms="7.8349318504333496e+00" purity="1.0000000000000000e+00" nType="-99"/>
            <Node pos="r" depth="3" NCoef="0" IVar="-1" Cut="0.0000000000000000e+00" cType="1" res="-5.0878036022186279e-01" rms="8.3839492797851562e+00" purity="1.0000000000000000e+00" nType="-99"/>
          </Node>
        </Node>
      </Node>
    </BinaryTree>
    <BinaryTree type="DecisionTree" boostWeight="1.0000000000000000e+00" itree="22">
      <Node pos="s" depth="0" NCoef="0" IVar="0" Cut="9.2617744445800781e+01" cType="0" res="1.8263241648674011e-01" rms="8.5782337188720703e+00" purity="1.0000000000000000e+00" nType="0">
        <Node pos="l" depth="1" NCoef="0" IVar="0" Cut="3.1438311767578125e+02" cType="0" res="3.5335800647735596e+00" rms="9.0743007659912109e+00" purity="1.0000000000000000e+00" nType="0">
          <Node pos="l" depth="2" NCoef="0" IVar="0" Cut="3.7774771118164062e+02" cType="0" res="1.0626605033874512e+01" rms="5.1819829940795898e+00" purity="1.0000000000000000e+00" nType="0">
            <Node pos="l" depth="3" NCoef="0" IVar="-1" Cut="0.0000000000000000e+00" cType="1" res="1.2406222343444824e+01" rms="3.1840193271636963e+00" purity="1.0000000000000000e+00" nType="-99"/>
            <Node pos="r" depth="3" NCoef="0" IVar="-1" Cut="0.0000000000000000e+00" cType="1" res="3.9539933204650879e+00" rms="6.2815322875976562e+00" purity="1.0000000000000000e+00" nType="-99"/>
          </Node>
          <Node pos="r" depth="2" NCoef="0" IVar="0" Cut="1.4541809082031250e+02" cType="0" res="3.3410174846649170e+00" rms="9.0800027847290039e+00" purity="1.0000000000000000e+00" nType="0">
            <Node pos="l" depth="3" NCoef="0" IVar="-1" Cut="0.0000000000000000e+00" cType="1" res="1.5208733081817627e+00" rms="9.1268291473388672e+00" purity="1.0000000000000000e+00" nType="-99"/>
            <Node pos="r" depth="3" NCoef="0" IVar="-1" Cut="0.0000000000000000e+00" cType="1" res="3.6016958951950073e-01" rms="8.8687696456909180e+00" purity="1.0000000000000000e+00" nType="-99"/>
          </Node>
        </Node>
        <Node pos="r" depth="1" NCoef="0" IVar="0" Cut="5.1960803985595703e+01" cType="0" res="-7.4057149887084961e-01" rms="8.1992454528808594e+00" purity="1.0000000000000000e+00" nType="0">
          <Node pos="l" depth="2" NCoef="0" IVar="6" Cut="4.1150765419006348e+00" cType="0" res="8.5855692625045776e-01" rms="8.2187719345092773e+00" purity="1.0000000000000000e+00" nType="0">
            <Node pos="l" depth="3" NCoef="0" IVar="-1" Cut="0.0000000000000000e+00" cType="1" res="3.4756276011466980e-01" rms="8.3474359512329102e+00" purity="1.0000000000000000e+00" nType="-99"/>
            <Node pos="r" depth="3" NCoef="0" IVar="-1" Cut="0.0000000000000000e+00" cType="1" res="-1.6213966533541679e-02" rms="8.0109062194824219e+00" purity="1.0000000000000000e+00" nType="-99"/>
          </Node>
          <Node pos="r" depth="2" NCoef="0" IVar="6" Cut="2.2850773334503174e+00" cType="0" res="-1.9766367673873901e+00" rms="7.9671416282653809e+00" purity="1.0000000000000000e+00" nType="0">
            <Node pos="l" depth="3" NCoef="0" IVar="-1" Cut="0.0000000000000000e+00" cType="1" res="-5.0252880901098251e-02" rms="8.3652687072753906e+00" purity="1.0000000000000000e+00" nType="-99"/>
            <Node pos="r" depth="3" NCoef="0" IVar="-1" Cut="0.0000000000000000e+00" cType="1" res="-3.4143528342247009e-01" rms="7.6915640830993652e+00" purity="1.0000000000000000e+00" nType="-99"/>
          </Node>
        </Node>
      </Node>
    </BinaryTree>
    <BinaryTree type="DecisionTree" boostWeight="1.0000000000000000e+00" itree="23">
      <Node pos="s" depth="0" NCoef="0" IVar="0" Cut="9.2617744445800781e+01" cType="0" res="1.6849800944328308e-01" rms="8.4945926666259766e+00" purity="1.0000000000000000e+00" nType="0">
        <Node pos="l" depth="1" NCoef="0" IVar="0" Cut="3.1438311767578125e+02" cType="0" res="3.1902544498443604e+00" rms="9.1017637252807617e+00" purity="1.0000000000000000e+00" nType="0">
          <Node pos="l" depth="2" NCoef="0" IVar="0" Cut="3.7774771118164062e+02" cType="0" res="1.0061607360839844e+01" rms="5.8370237350463867e+00" purity="1.0000000000000000e+00" nType="0">
            <Node pos="l" depth="3" NCoef="0" IVar="-1" Cut="0.0000000000000000e+00" cType="1" res="1.1165372848510742e+01" rms="3.9544594287872314e+00" purity="1.0000000000000000e+00" nType="-99"/>
            <Node pos="r" depth="3" NCoef="0" IVar="-1" Cut="0.0000000000000000e+00" cType="1" res="3.5582127571105957e+00" rms="6.8978261947631836e+00" purity="1.0000000000000000e+00" nType="-99"/>
          </Node>
          <Node pos="r" depth="2" NCoef="0" IVar="0" Cut="1.9821794128417969e+02" cType="0" res="3.0037100315093994e+00" rms="9.1021718978881836e+00" purity="1.0000000000000000e+00" nType="0">
            <Node pos="l" depth="3" NCoef="0" IVar="-1" Cut="0.0000000000000000e+00" cType="1" res="2.3861844539642334e+00" rms="8.4268960952758789e+00" purity="1.0000000000000000e+00" nType="-99"/>
            <Node pos="r" depth="3" NCoef="0" IVar="-1" Cut="0.0000000000000000e+00" cType="1" res="4.2710947990417480e-01" rms="9.0520734786987305e+00" purity="1.0000000000000000e+00" nType="-99"/>
          </Node>
        </Node>
        <Node pos="r" depth="1" NCoef="0" IVar="0" Cut="4.0872566223144531e+01" cType="0" res="-6.6401201486587524e-01" rms="8.1244010925292969e+00" purity="1.0000000000000000e+00" nType="0">
          <Node pos="l" depth="2" NCoef="0" IVar="0" Cut="8.0297477722167969e+01" cType="0" res="3.4728038311004639e-01" rms="8.0575914382934570e+00" purity="1.0000000000000000e+00" nType="0">
            <Node pos="l" depth="3" NCoef="0" IVar="-1" Cut="0.0000000000000000e+00" cType="1" res="4.2124098539352417e-01" rms="8.0916500091552734e+00" purity="1.0000000000000000e+00" nType="-99"/>
            <Node pos="r" depth="3" NCoef="0" IVar="-1" Cut="0.0000000000000000e+00" cType="1" res="-3.1461972743272781e-02" rms="7.9629240036010742e+00" purity="1.0000000000000000e+00" nType="-99"/>
          </Node>
          <Node pos="r" depth="2" NCoef="0" IVar="0" Cut="2.7320264816284180e+01" cType="0" res="-2.3262355327606201e+00" rms="7.9585738182067871e+00" purity="1.0000000000000000e+00" nType="0">
            <Node pos="l" depth="3" NCoef="0" IVar="-1" Cut="0.0000000000000000e+00" cType="1" res="-1.9429223239421844e-01" rms="7.4645242691040039e+00" purity="1.0000000000000000e+00" nType="-99"/>
            <Node pos="r" depth="3" NCoef="0" IVar="-1" Cut="0.0000000000000000e+00" cType="1" res="-5.1587450504302979e-01" rms="8.5194692611694336e+00" purity="1.0000000000000000e+00" nType="-99"/>
          </Node>
        </Node>
      </Node>
    </BinaryTree>
    <BinaryTree type="DecisionTree" boostWeight="1.0000000000000000e+00" itree="24">
      <Node pos="s" depth="0" NCoef="0" IVar="0" Cut="9.2617744445800781e+01" cType="0" res="1.5472865104675293e-01" rms="8.4126043319702148e+00" purity="1.0000000000000000e+00" nType="0">
        <Node pos="l" depth="1" NCoef="0" IVar="0" Cut="3.1438311767578125e+02" cType="0" res="2.8807663917541504e+00" rms="9.1148481369018555e+00" purity="1.0000000000000000e+00" nType="0">
          <Node pos="l" depth="2" NCoef="0" IVar="0" Cut="4.4110894775390625e+02" cType="0" res="9.4199047088623047e+00" rms="6.4631662368774414e+00" purity="1.0000000000000000e+00" nType="0">
            <Node pos="l" depth="3" NCoef="0" IVar="-1" Cut="0.0000000000000000e+00" cType="1" res="1.7125616073608398e+01" rms="1.9691083431243896e+00" purity="1.0000000000000000e+00" nType="-99"/>
            <Node pos="r" depth="3" NCoef="0" IVar="-1" Cut="0.0000000000000000e+00" cType="1" res="3.7235879898071289e+00" rms="7.2216501235961914e+00" purity="1.0000000000000000e+00" nType="-99"/>
          </Node>
          <Node pos="r" depth="2" NCoef="0" IVar="0" Cut="1.0317822265625000e+02" cType="0" res="2.7032408714294434e+00" rms="9.1109552383422852e+00" purity="1.0000000000000000e+00" nType="0">
            <Node pos="l" depth="3" NCoef="0" IVar="-1" Cut="0.0000000000000000e+00" cType="1" res="6.7027926445007324e-01" rms="9.0270690917968750e+00" purity="1.0000000000000000e+00" nType="-99"/>
            <Node pos="r" depth="3" NCoef="0" IVar="-1" Cut="0.0000000000000000e+00" cType="1" res="-1.6623809933662415e-02" rms="8.9035072326660156e+00" purity="1.0000000000000000e+00" nType="-99"/>
          </Node>
        </Node>
        <Node pos="r" depth="1" NCoef="0" IVar="4" Cut="1.3530831336975098e+01" cType="0" res="-5.9630924463272095e-01" rms="8.0479450225830078e+00" purity="1.0000000000000000e+00" nType="0">
          <Node pos="l" depth="2" NCoef="0" IVar="6" Cut="4.1150765419006348e+00" cType="0" res="1.3469790220260620e+00" rms="8.1473608016967773e+00" purity="1.0000000000000000e+00" nType="0">
            <Node pos="l" depth="3" NCoef="0" IVar="-1" Cut="0.0000000000000000e+00" cType="1" res="4.1302430629730225e-01" rms="8.1199073791503906e+00" purity="1.0000000000000000e+00" nType="-99"/>
            <Node pos="r" depth="3" NCoef="0" IVar="-1" Cut="0.0000000000000000e+00" cType="1" res="-1.4706976711750031e-02" rms="7.9330019950866699e+00" purity="1.0000000000000000e+00" nType="-99"/>
          </Node>
          <Node pos="r" depth="2" NCoef="0" IVar="0" Cut="2.9784330368041992e+01" cType="0" res="-1.3449306488037109e+00" rms="7.8825087547302246e+00" purity="1.0000000000000000e+00" nType="0">
            <Node pos="l" depth="3" NCoef="0" IVar="-1" Cut="0.0000000000000000e+00" cType="1" res="-1.1103224009275436e-01" rms="7.6734094619750977e+00" purity="1.0000000000000000e+00" nType="-99"/>
            <Node pos="r" depth="3" NCoef="0" IVar="-1" Cut="0.0000000000000000e+00" cType="1" res="-4.2012703418731689e-01" rms="8.2352428436279297e+00" purity="1.0000000000000000e+00" nType="-99"/>
          </Node>
        </Node>
      </Node>
    </BinaryTree>
    <BinaryTree type="DecisionTree" boostWeight="1.0000000000000000e+00" itree="25">
      <Node pos="s" depth="0" NCoef="0" IVar="0" Cut="9.2617744445800781e+01" cType="0" res="1.4255970716476440e-01" rms="8.3385343551635742e+00" purity="1.0000000000000000e+00" nType="0">
        <Node pos="l" depth="1" NCoef="0" IVar="0" Cut="3.1438311767578125e+02" cType="0" res="2.5962841510772705e+00" rms="9.1183738708496094e+00" purity="1.0000000000000000e+00" nType="0">
          <Node pos="l" depth="2" NCoef="0" IVar="0" Cut="4.4110894775390625e+02" cType="0" res="8.8443012237548828e+00" rms="6.9671711921691895e+00" purity="1.0000000000000000e+00" nType="0">
            <Node pos="l" depth="3" NCoef="0" IVar="-1" Cut="0.0000000000000000e+00" cType="1" res="1.5413053512573242e+01" rms="2.3646442890167236e+00" purity="1.0000000000000000e+00" nType="-99"/>
            <Node pos="r" depth="3" NCoef="0" IVar="-1" Cut="0.0000000000000000e+00" cType="1" res="3.3510274887084961e+00" rms="7.7284774780273438e+00" purity="1.0000000000000000e+00" nType="-99"/>
          </Node>
          <Node pos="r" depth="2" NCoef="0" IVar="0" Cut="1.4541809082031250e+02" cType="0" res="2.4266622066497803e+00" rms="9.1101913452148438e+00" purity="1.0000000000000000e+00" nType="0">
            <Node pos="l" depth="3" NCoef="0" IVar="-1" Cut="0.0000000000000000e+00" cType="1" res="1.2030310630798340e+00" rms="9.3525505065917969e+00" purity="1.0000000000000000e+00" nType="-99"/>
            <Node pos="r" depth="3" NCoef="0" IVar="-1" Cut="0.0000000000000000e+00" cType="1" res="2.3441287875175476e-01" rms="8.8484811782836914e+00" purity="1.0000000000000000e+00" nType="-99"/>
          </Node>
        </Node>
        <Node pos="r" depth="1" NCoef="0" IVar="0" Cut="6.3049041748046875e+01" cType="0" res="-5.3345441818237305e-01" rms="7.9790225028991699e+00" purity="1.0000000000000000e+00" nType="0">
          <Node pos="l" depth="2" NCoef="0" IVar="0" Cut="8.6985557556152344e+01" cType="0" res="1.2989665269851685e+00" rms="8.1371812820434570e+00" purity="1.0000000000000000e+00" nType="0">
            <Node pos="l" depth="3" NCoef="0" IVar="-1" Cut="0.0000000000000000e+00" cType="1" res="5.6355971097946167e-01" rms="7.7836904525756836e+00" purity="1.0000000000000000e+00" nType="-99"/>
            <Node pos="r" depth="3" NCoef="0" IVar="-1" Cut="0.0000000000000000e+00" cType="1" res="1.0628969222307205e-01" rms="8.1186199188232422e+00" purity="1.0000000000000000e+00" nType="-99"/>
          </Node>
          <Node pos="r" depth="2" NCoef="0" IVar="6" Cut="2.4598860740661621e+00" cType="0" res="-1.2360632419586182e+00" rms="7.8042507171630859e+00" purity="1.0000000000000000e+00" nType="0">
            <Node pos="l" depth="3" NCoef="0" IVar="-1" Cut="0.0000000000000000e+00" cType="1" res="1.5993164852261543e-02" rms="8.1931514739990234e+00" purity="1.0000000000000000e+00" nType="-99"/>
            <Node pos="r" depth="3" NCoef="0" IVar="-1" Cut="0.0000000000000000e+00" cType="1" res="-2.4549406766891479e-01" rms="7.5393996238708496e+00" purity="1.0000000000000000e+00" nType="-99"/>
          </Node>
        </Node>
      </Node>
    </BinaryTree>
    <BinaryTree type="DecisionTree" boostWeight="1.0000000000000000e+00" itree="26">
      <Node pos="s" depth="0" NCoef="0" IVar="0" Cut="9.2617744445800781e+01" cType="0" res="1.3533297181129456e-01" rms="8.2815208435058594e+00" purity="1.0000000000000000e+00" nType="0">
        <Node pos="l" depth="1" NCoef="0" IVar="12" Cut="1.2370749711990356e+00" cType="0" res="2.3464279174804688e+00" rms="9.1260080337524414e+00" purity="1.0000000000000000e+00" nType="0">
          <Node pos="l" depth="2" NCoef="0" IVar="8" Cut="3.4722741693258286e-02" cType="0" res="1.2742084264755249e+00" rms="9.1847171783447266e+00" purity="1.0000000000000000e+00" nType="0">
            <Node pos="l" depth="3" NCoef="0" IVar="-1" Cut="0.0000000000000000e+00" cType="1" res="7.2754551656544209e-03" rms="9.3479709625244141e+00" purity="1.0000000000000000e+00" nType="-99"/>
            <Node pos="r" depth="3" NCoef="0" IVar="-1" Cut="0.0000000000000000e+00" cType="1" res="4.5021948218345642e-01" rms="8.7888212203979492e+00" purity="1.0000000000000000e+00" nType="-99"/>
          </Node>
          <Node pos="r" depth="2" NCoef="0" IVar="0" Cut="3.1438311767578125e+02" cType="0" res="3.3019993305206299e+00" rms="8.9659500122070312e+00" purity="1.0000000000000000e+00" nType="0">
            <Node pos="l" depth="3" NCoef="0" IVar="-1" Cut="0.0000000000000000e+00" cType="1" res="4.6376094818115234e+00" rms="6.9239544868469238e+00" purity="1.0000000000000000e+00" nType="-99"/>
            <Node pos="r" depth="3" NCoef="0" IVar="-1" Cut="0.0000000000000000e+00" cType="1" res="6.0081219673156738e-01" rms="8.9697170257568359e+00" purity="1.0000000000000000e+00" nType="-99"/>
          </Node>
        </Node>
        <Node pos="r" depth="1" NCoef="0" IVar="0" Cut="3.7176490783691406e+01" cType="0" res="-4.7383546829223633e-01" rms="7.9256248474121094e+00" purity="1.0000000000000000e+00" nType="0">
          <Node pos="l" depth="2" NCoef="0" IVar="6" Cut="1.2345229148864746e+01" cType="0" res="2.2508165240287781e-01" rms="7.8743515014648438e+00" purity="1.0000000000000000e+00" nType="0">
            <Node pos="l" depth="3" NCoef="0" IVar="-1" Cut="0.0000000000000000e+00" cType="1" res="3.1264713406562805e-01" rms="8.1200256347656250e+00" purity="1.0000000000000000e+00" nType="-99"/>
            <Node pos="r" depth="3" NCoef="0" IVar="-1" Cut="0.0000000000000000e+00" cType="1" res="-3.9421364665031433e-02" rms="7.7598757743835449e+00" purity="1.0000000000000000e+00" nType="-99"/>
          </Node>
          <Node pos="r" depth="2" NCoef="0" IVar="0" Cut="2.6616249084472656e+01" cType="0" res="-1.9969615936279297e+00" rms="7.8228211402893066e+00" purity="1.0000000000000000e+00" nType="0">
            <Node pos="l" depth="3" NCoef="0" IVar="-1" Cut="0.0000000000000000e+00" cType="1" res="-1.6857063770294189e-01" rms="7.3044962882995605e+00" purity="1.0000000000000000e+00" nType="-99"/>
            <Node pos="r" depth="3" NCoef="0" IVar="-1" Cut="0.0000000000000000e+00" cType="1" res="-4.2277979850769043e-01" rms="8.3674306869506836e+00" purity="1.0000000000000000e+00" nType="-99"/>
          </Node>
        </Node>
      </Node>
    </BinaryTree>
    <BinaryTree type="DecisionTree" boostWeight="1.0000000000000000e+00" itree="27">
      <Node pos="s" depth="0" NCoef="0" IVar="0" Cut="9.2617744445800781e+01" cType="0" res="1.2583796679973602e-01" rms="8.2247219085693359e+00" purity="1.0000000000000000e+00" nType="0">
        <Node pos="l" depth="1" NCoef="0" IVar="14" Cut="2.4761905670166016e+00" cType="0" res="2.1128895282745361e+00" rms="9.1255092620849609e+00" purity="1.0000000000000000e+00" nType="0">
          <Node pos="l" depth="2" NCoef="0" IVar="0" Cut="1.5628065490722656e+02" cType="0" res="1.1415393352508545e+00" rms="9.1064968109130859e+00" purity="1.0000000000000000e+00" nType="0">
            <Node pos="l" depth="3" NCoef="0" IVar="-1" Cut="0.0000000000000000e+00" cType="1" res="9.2274886369705200e-01" rms="9.8052988052368164e+00" purity="1.0000000000000000e+00" nType="-99"/>
            <Node pos="r" depth="3" NCoef="0" IVar="-1" Cut="0.0000000000000000e+00" cType="1" res="6.5816737711429596e-02" rms="8.7777843475341797e+00" purity="1.0000000000000000e+00" nType="-99"/>
          </Node>
          <Node pos="r" depth="2" NCoef="0" IVar="0" Cut="3.1438327026367188e+02" cType="0" res="3.0180728435516357e+00" rms="9.0498256683349609e+00" purity="1.0000000000000000e+00" nType="0">
            <Node pos="l" depth="3" NCoef="0" IVar="-1" Cut="0.0000000000000000e+00" cType="1" res="4.3122501373291016e+00" rms="7.5080180168151855e+00" purity="1.0000000000000000e+00" nType="-99"/>
            <Node pos="r" depth="3" NCoef="0" IVar="-1" Cut="0.0000000000000000e+00" cType="1" res="5.5803084373474121e-01" rms="9.0478086471557617e+00" purity="1.0000000000000000e+00" nType="-99"/>
          </Node>
        </Node>
        <Node pos="r" depth="1" NCoef="0" IVar="0" Cut="6.6745124816894531e+01" cType="0" res="-4.2160531878471375e-01" rms="7.8710045814514160e+00" purity="1.0000000000000000e+00" nType="0">
          <Node pos="l" depth="2" NCoef="0" IVar="12" Cut="1.5231246948242188e+00" cType="0" res="1.3584852218627930e+00" rms="8.1036128997802734e+00" purity="1.0000000000000000e+00" nType="0">
            <Node pos="l" depth="3" NCoef="0" IVar="-1" Cut="0.0000000000000000e+00" cType="1" res="6.2580909579992294e-03" rms="8.0032348632812500e+00" purity="1.0000000000000000e+00" nType="-99"/>
            <Node pos="r" depth="3" NCoef="0" IVar="-1" Cut="0.0000000000000000e+00" cType="1" res="2.9527691006660461e-01" rms="8.0737400054931641e+00" purity="1.0000000000000000e+00" nType="-99"/>
          </Node>
          <Node pos="r" depth="2" NCoef="0" IVar="6" Cut="2.4598860740661621e+00" cType="0" res="-9.5682168006896973e-01" rms="7.7198634147644043e+00" purity="1.0000000000000000e+00" nType="0">
            <Node pos="l" depth="3" NCoef="0" IVar="-1" Cut="0.0000000000000000e+00" cType="1" res="2.7322189882397652e-02" rms="8.1307649612426758e+00" purity="1.0000000000000000e+00" nType="-99"/>
            <Node pos="r" depth="3" NCoef="0" IVar="-1" Cut="0.0000000000000000e+00" cType="1" res="-2.0255060493946075e-01" rms="7.4618535041809082e+00" purity="1.0000000000000000e+00" nType="-99"/>
          </Node>
        </Node>
      </Node>
    </BinaryTree>
    <BinaryTree type="DecisionTree" boostWeight="1.0000000000000000e+00" itree="28">
      <Node pos="s" depth="0" NCoef="0" IVar="0" Cut="9.2617744445800781e+01" cType="0" res="1.2012583762407303e-01" rms="8.1848688125610352e+00" purity="1.0000000000000000e+00" nType="0">
        <Node pos="l" depth="1" NCoef="0" IVar="7" Cut="1.8978273496031761e-02" cType="0" res="1.9047932624816895e+00" rms="9.1360902786254883e+00" purity="1.0000000000000000e+00" nType="0">
          <Node pos="l" depth="2" NCoef="0" IVar="16" Cut="5.6311199188232422e+01" cType="0" res="3.3950231075286865e+00" rms="8.8907909393310547e+00" purity="1.0000000000000000e+00" nType="0">
            <Node pos="l" depth="3" NCoef="0" IVar="-1" Cut="0.0000000000000000e+00" cType="1" res="2.5910639762878418e+00" rms="8.4744138717651367e+00" purity="1.0000000000000000e+00" nType="-99"/>
            <Node pos="r" depth="3" NCoef="0" IVar="-1" Cut="0.0000000000000000e+00" cType="1" res="5.4041767120361328e-01" rms="8.8613376617431641e+00" purity="1.0000000000000000e+00" nType="-99"/>
          </Node>
          <Node pos="r" depth="2" NCoef="0" IVar="9" Cut="3.1713390350341797e-01" cType="0" res="1.3245006799697876e+00" rms="9.1645269393920898e+00" purity="1.0000000000000000e+00" nType="0">
            <Node pos="l" depth="3" NCoef="0" IVar="-1" Cut="0.0000000000000000e+00" cType="1" res="4.6758314967155457e-01" rms="8.9016008377075195e+00" purity="1.0000000000000000e+00" nType="-99"/>
            <Node pos="r" depth="3" NCoef="0" IVar="-1" Cut="0.0000000000000000e+00" cType="1" res="4.5107558369636536e-02" rms="9.2531347274780273e+00" purity="1.0000000000000000e+00" nType="-99"/>
          </Node>
        </Node>
        <Node pos="r" depth="1" NCoef="0" IVar="4" Cut="1.3530831336975098e+01" cType="0" res="-3.7155953049659729e-01" rms="7.8315753936767578e+00" purity="1.0000000000000000e+00" nType="0">
          <Node pos="l" depth="2" NCoef="0" IVar="6" Cut="4.1150765419006348e+00" cType="0" res="1.1052060127258301e+00" rms="8.0203952789306641e+00" purity="1.0000000000000000e+00" nType="0">
            <Node pos="l" depth="3" NCoef="0" IVar="-1" Cut="0.0000000000000000e+00" cType="1" res="3.3264929056167603e-01" rms="8.1262445449829102e+00" purity="1.0000000000000000e+00" nType="-99"/>
            <Node pos="r" depth="3" NCoef="0" IVar="-1" Cut="0.0000000000000000e+00" cType="1" res="-9.0663731098175049e-03" rms="7.7782244682312012e+00" purity="1.0000000000000000e+00" nType="-99"/>
          </Node>
          <Node pos="r" depth="2" NCoef="0" IVar="9" Cut="3.0924099683761597e-01" cType="0" res="-9.4046032428741455e-01" rms="7.6822342872619629e+00" purity="1.0000000000000000e+00" nType="0">
            <Node pos="l" depth="3" NCoef="0" IVar="-1" Cut="0.0000000000000000e+00" cType="1" res="2.6748452801257372e-03" rms="7.5477428436279297e+00" purity="1.0000000000000000e+00" nType="-99"/>
            <Node pos="r" depth="3" NCoef="0" IVar="-1" Cut="0.0000000000000000e+00" cType="1" res="-2.3633728921413422e-01" rms="7.6819729804992676e+00" purity="1.0000000000000000e+00" nType="-99"/>
          </Node>
        </Node>
      </Node>
    </BinaryTree>
    <BinaryTree type="DecisionTree" boostWeight="1.0000000000000000e+00" itree="29">
      <Node pos="s" depth="0" NCoef="0" IVar="0" Cut="9.2617744445800781e+01" cType="0" res="1.1513059586286545e-01" rms="8.1463890075683594e+00" purity="1.0000000000000000e+00" nType="0">
        <Node pos="l" depth="1" NCoef="0" IVar="4" Cut="4.0260787963867188e+01" cType="0" res="1.7171188592910767e+00" rms="9.1389818191528320e+00" purity="1.0000000000000000e+00" nType="0">
          <Node pos="l" depth="2" NCoef="0" IVar="0" Cut="3.8830529785156250e+02" cType="0" res="3.5583260059356689e+00" rms="9.2722816467285156e+00" purity="1.0000000000000000e+00" nType="0">
            <Node pos="l" depth="3" NCoef="0" IVar="-1" Cut="0.0000000000000000e+00" cType="1" res="8.7329187393188477e+00" rms="4.9322700500488281e+00" purity="1.0000000000000000e+00" nType="-99"/>
            <Node pos="r" depth="3" NCoef="0" IVar="-1" Cut="0.0000000000000000e+00" cType="1" res="7.9630577564239502e-01" rms="9.3109312057495117e+00" purity="1.0000000000000000e+00" nType="-99"/>
          </Node>
          <Node pos="r" depth="2" NCoef="0" IVar="0" Cut="1.2320703125000000e+02" cType="0" res="1.2699911594390869e+00" rms="9.0499620437622070e+00" purity="1.0000000000000000e+00" nType="0">
            <Node pos="l" depth="3" NCoef="0" IVar="-1" Cut="0.0000000000000000e+00" cType="1" res="5.8211898803710938e-01" rms="9.1975431442260742e+00" purity="1.0000000000000000e+00" nType="-99"/>
            <Node pos="r" depth="3" NCoef="0" IVar="-1" Cut="0.0000000000000000e+00" cType="1" res="-4.0859603323042393e-03" rms="8.7547464370727539e+00" purity="1.0000000000000000e+00" nType="-99"/>
          </Node>
        </Node>
        <Node pos="r" depth="1" NCoef="0" IVar="0" Cut="2.9784330368041992e+01" cType="0" res="-3.2622569799423218e-01" rms="7.7932577133178711e+00" purity="1.0000000000000000e+00" nType="0">
